0.036578,0.0053932,0.0020429,-0.070878,0.013267,0.012107,0.027137,2.022e-05,0.023838,0.010592,-2.312e-05,-0.024822,-0.039944,0.0083228,-0.028449,-0.055902,-0.12191,-8.4431e-06,0.014341,-0.0037149,0.0084731,0.0097875,-0.012236,-0.042109,-0.01569,-0.0063416,-0.010637,0.006097,0.013656,-0.047568,0.015395,-0.041183,0.0084202,0.01076,0.014652,-0.020122,-0.0032432,0.012444,0.0020262,0.00090727,-0.0067591,-0.050633,-0.026981,-0.055095,-0.0019392,-0.047542,0.010084,0.0073472,-0.078466,0.011555,-0.021595,-0.0071768,0.0082332,0.016954,-0.0016985,0.0042909,0.0036439,-0.11136,0.0097808,-0.020774,0.012167,-0.050583,0.010397,-0.0071829,0.019883,0.020577,-0.00040368,0.016586,0.0031221,0.01101,0.0046036,-0.047128,-0.017348,-0.068026,-0.051036,-0.0025719,0.0016206,0.019296,-0.044871,0.010368,0.0019488,-0.0082532,0.0048711,0.0061444,0.002184,-0.020501,0.0092717,-0.064265,0.013515,-0.05566,-0.02464,0.022367,-0.0013636,0.028333,0.012897,-0.037,0.017889,-0.060773,-0.049039,-0.077534,0.0097256,-0.0041205,0.01255,0.018424,-0.022659,0.014401,0.0083819,-0.031514,-0.025861,-0.016561,-0.0039387,-0.018868,-0.00085583,0.0052135,0.0057391,-0.031896,0.0043332,-0.042351,-0.064444,0.0077025,-0.082411,0.0079501,0.016035,0.0057172,0.005414,-0.0058687,-0.031376,0.0066572,0.0059706,0.01158,-0.057169,0.0075404,0.0088568,-0.056051,-0.053223,0.010429,0.011377,-0.010718,-0.030889,0.0035197,-0.060912,-0.068746,0.0057783,-0.019429,0.0083942,0.0052573,-0.047933,-0.044087,-0.024859,-0.05485,-0.0015948,0.0087153,0.011512,-0.044123,-0.045237,0.0086964,0.0026968,-0.0072108,0.0039566,-0.10182,0.0092749,-0.014172,-0.0038452,0.010429,0.012246,0.003862,-0.017478,0.0080504,-0.041873,0.015359,-0.0025942,0.019614,-0.0019403,-0.039517,0.00013676,-0.057094,0.00064944,0.0024138,0.018214,0.021033,0.0013297,0.0076718,0.0043593,0.0083084,-0.051218,0.0062378,-0.0011271,0.013503,-0.047858,0.014326,-0.027024,-0.025188,-0.0060987,-0.0073961,-0.00023551,0.0095174,-0.014568,0.0097284,-0.031569,-0.00035537,0.013602,0.0085073,-0.03132,0.0234,0.00069043,0.0067971,0.0053866,-0.0095778,-0.0013742,0.019443,-0.033641,0.0033564,0.00060897,0.012169,0.01572,-0.0051967,0.0022372,-0.012656,0.00027075,0.011995,-0.02078,0.00063173,-0.050231,0.0028415,0.020418,-0.012829,0.0069548,0.0091018,-0.012619,0.011062,0.020016,0.0063374,0.0097759,-0.061279,-0.042754,0.0011419,-0.026621,0.0080809,0.0076892,0.0026585,-0.083822,0.0092504,-0.023342,-0.029811,-0.086492,0.014538,0.0051225,-0.034483,-0.049181,0.0011206,-0.039526,0.011795,0.012988,0.0014477,0.010149,0.0028189,0.0070326,0.016851,0.016948,0.00066811,0.012619,-0.028745,-0.047424,0.0042228,0.0020315,-6.7139e-05,0.03111,0.0023041,0.013366,-0.054406,0.012919,-0.028693,-0.033836,0.0018022,-0.073123,0.00030192,0.010044,-0.00026172,-0.0035985,-0.053694,-0.00049153,-0.036397,-0.0063661,-0.013052,-0.078817,-0.0081186,0.0089041,0.021344,-0.00058049,0.0075466,0.012519,0.0017644,-0.058889,-0.015497,0.013221,0.019331,0.015292,0.011145,-0.021916,-0.0094736,0.018558,0.00094577,-0.099922,0.0068523,-0.0035547,-0.078627,0.0059228,0.011007,-0.070505,0.012497,0.0074814,-0.040425,0.0032637,-0.082869,0.015006,-0.063802,0.012964,-0.0092211,-0.0017304,-0.046279,0.01183,0.0071666,-0.0087489,0.00098243,0.00091842,-0.020015,-0.05434,0.009258,0.00093224,-0.055628,0.0060268,-0.036825,-0.030319,0.0085342,-0.0040789,-0.042449,0.0082432,0.0044175,0.003271,-0.00075677,0.015305,0.0015441,0.0019023,0.01449,-0.019707,-0.054863,0.0023003,-0.00058651,0.007233,-0.0035927,-0.066166,0.011166,-0.006381,0.024504,0.0083694,0.01747,-0.10949,0.0093556,0.015438,0.021683,0.0028498,-0.069659,0.0045151,0.002425,-0.043163,-0.069862,-0.042178,0.0050988,-0.021104,-0.061848,0.0063032,0.01579,0.012622,-0.0013609,-0.073641,0.0048975,0.014565,-0.098681,-0.022002,0.0015043,-0.06405,0.013738,-0.04716,0.0047037,0.0065622,0.031059,-0.00334,-0.026413,-0.026392,-0.047501,-0.022663,-0.036422,-0.0095489,0.016908,0.0059294,0.009672,-0.054215,0.0048515,-0.00099946,0.0068305,-0.0001661,0.0062188,0.0024849,0.0037602,0.0085068,0.00089073,0.0049084,-0.014332,-0.020235,0.01044,-0.057312,-0.029518,-0.044438,0.0072043,0.0041884,-0.074127,0.0060297,0.004197,0.0089172,-0.060365,-0.0077797,0.010315,0.0031625,-0.03003,-0.058091,-0.0361,-0.078673,-0.0071484,0.0070465,0.0080801,-0.04961,-0.064432,0.021231,-0.00018253,0.0072436,0.023395,-0.040444,0.0052284,-0.021698,0.015604,0.018985,0.0018147,0.015706,0.021159,0.013886,0.011424,-0.016577,0.015673,0.01852,0.014452,0.01617,-0.027216,-0.019467,0.0061934,0.0031259,-0.031909,-0.061329,0.016018,-0.056903,-0.048688,-0.06538,-0.00039688,0.0071199,-0.016836,0.0032227,0.0029339,0.00080771,-0.003365,0.017951,0.020258,-0.002884,0.0043064,-0.025613,-0.0034726,-0.0045058,-0.086347,0.012002,-0.028486,-0.03277,0.010449,0.015256,0.0060107,0.0094048,-0.038741,-0.065558,0.013607,0.0065865,-0.028803,0.0026626,0.022095,0.01519,0.0066182,-0.0046672,-0.048201,0.02494,0.014085,0.0072152,-0.073268,-0.018293,-0.049589,0.017868,0.0034017,0.013338,-0.00060302,0.0017506,-0.0391,-0.0086929,0.01686,-0.03164,-0.089481,0.011655,-0.034766,-0.054191,0.015284,-0.0019559,-0.0407,-0.049949,-0.086298,-0.057079,0.0090266,0.018869,0.0098954,-6.5703e-05,0.011998,-0.058405,0.0067498,-0.021327,-0.019772,0.010944,0.019024,-0.04103,0.012064,-0.019026,-0.05637,-0.016332,0.016526,-0.026779,0.010501,0.012663,0.012177,-0.093722,0.0031661,-0.025486,-0.050644,0.0054175,0.018983,-0.024885,0.0093876,-0.039822,0.0045389,-0.032128,-0.044737,-0.05958,-0.082417,-0.088054,-0.019191,-0.030675,-0.029671,-0.026569,-0.0068825,-0.085744,-0.0088553,0.016517,-0.002477,0.016581,0.014837,-0.052214,-0.027047,-0.033894,-0.048893,-0.026665,0.010535,0.01129,-0.084912,0.016436,0.010033,0.0032459,0.0065621,-0.075249,0.0062385,0.005053,0.0069465,-0.056438,-0.033926,-0.00091127,0.0080476,0.0044261,0.0052836,0.0026727,-0.0016905,0.012664,0.0049826,0.014217,-0.046423,-0.0057722,-0.067958,0.0068901,0.01194,0.01573,0.0050246,0.003101,0.0045769,0.014429,-0.074416,-0.015245,-0.041039,-0.063111,0.020423,0.0078808,0.0012582,0.0065723,0.013929,-0.00093497,-7.728e-05,-0.084163,-0.0044592,0.016866,-0.039906,-0.026797,-0.061936,-0.00071321,-0.090025,0.013777,-0.033727,-0.043343,0.0048592,0.0026109,0.010335,0.0020459,-0.07934,0.016146,0.0065853,-0.0053487,0.0062688,-0.07673,0.0045172,-0.0055134,0.00032052,-0.01613,-0.0063457,0.021782,0.011774,0.008166,0.00501,-0.017334,0.020899,0.0086324,-0.036942,0.0049688,-0.01902,-0.044076,0.0053558,-0.015591,0.0070531,0.0050915,0.0070078,-0.073195,0.02117,0.0075802,0.001367,0.0069797,0.016302,-0.084811,-0.05776,-0.035033,0.0016633,0.0094246,-0.061184,-0.045347,0.010337,-0.072804,-0.023901,0.0073771,0.010987,-0.022736,-0.081485,0.01445,-0.020511,0.0081803,0.006818,0.0049082,0.011366,0.00040792,0.0078602,0.019037,-0.066928,0.014208,-0.041714,-0.044592,0.0041089,0.0011584,0.014134,0.0070195,0.028065,-0.00088223,0.0093259,-0.014025,-0.0021473,0.015443,0.0093431,0.025171,-0.054828,-0.04663,0.0077277,0.0090446,-0.029492,-0.042579,0.0021128,0.019004,0.0084411,-0.044418,0.00052586,-0.062131,-0.038202,-0.034217,-0.048882,0.0018925,-0.012588,-0.004735,-0.049072,-0.0017565,0.0053025,-0.029299,-0.075651,-0.023197,-0.048563,-0.057053,-0.00036066,0.001242,0.020292,-0.018412,-0.075465,-0.010558,-0.00031523,-0.080635,-0.030095,0.0067183,0.0034892,-0.076928,-0.0058515,0.012312,0.0014136,-0.040025,0.013639,-0.025588,0.011585,-0.0081433,-0.072897,0.002085,0.0039233,0.0070979,0.011243,-0.024758,-0.0086511,0.015338,0.015159,-0.033291,0.0061621,-0.028921,0.0040491,0.0077025,0.0029448,-0.045123,0.0091193,0.007201,-0.0023836,0.013261,0.0021392,-0.072958,-0.062849,0.013583,-0.026279,0.0051347,-0.085962,6.5761e-05,0.0035139,0.0080546,-0.036098,-0.08049,0.0086896,0.010011,-0.039676,0.013389,0.00088672,-0.0086803,-0.052757,0.0079338,0.011221,0.029672,-0.023822,0.010723,-0.046819,0.013272,-0.0076078,0.0059301,-0.090702,0.010571,-0.053543,0.023475,0.023261,-2.2972e-05,0.018979,-0.0026452,0.0037728,0.0085862,0.0069741,0.012791,-0.056183,0.012939,-0.015278,0.010651,0.014519,0.0010857,0.010528,0.0092415,-0.0017666,-0.048414,0.0087605,-0.041605,-0.0032535,0.0099726,0.0089473,0.0084812,-0.05729,-0.043846,-0.0092543,0.021874,-0.079037,-0.046004,-0.050578,-0.022133,0.0072808,-0.0034351,-0.019804,0.0070634,-0.03313,-0.0060343,0.0034305,0.011206,0.025302,-0.04537,-0.094962,-0.011455,-0.043977,0.025258,-0.049373,0.0097935,0.020373,-0.013694,0.01766,-0.05319,-0.038266,0.012552,0.012676,-0.029442,0.0050756,-0.055384,0.021443,-0.043502,-0.06216,-0.062818,0.012853,-0.051096,0.0081611,-0.090676,0.016672,0.011552,-0.056347,0.019121,-0.072165,0.013852,0.011378,-0.0013596,0.0065921,0.0058328,-0.038655,0.0062497,0.01661,0.0033974,0.011989,-0.0018081,-0.080209,0.0069213,-0.034987,-0.043619,-0.053757,-0.041847,-0.037209,0.0040883,-0.053747,0.019197,0.0056133,-0.045875,0.0047915,0.0042735,0.0081858,0.0089169,-0.0050525,0.0080604,0.0053229,-0.055095,0.015039,0.0063422,-0.037468,-0.035495,0.014359,0.012334,-0.057431,0.0089209,-0.015504,-0.0011485,-0.043968,-0.062539,0.013435,0.020251,0.0048135,0.0016416,-0.021221,0.0072053,0.013555,-0.08058,0.0029071,-0.021383,0.010735,0.0084592,-0.0013931,-0.011535,0.0028996,-0.054688,-0.010157,-0.097743,-0.042549,0.016186,-0.012644,-0.012223,0.017258,0.0056089,-0.06512,-0.027749,0.01448,0.001159,0.0079063,-0.012268,0.0059137,-0.019483,-0.039374,-0.023371,0.032988,-0.0034709,0.023678,0.0057886,-0.019424,0.024509,-0.034772,-0.057808,-0.037962,-0.067518,0.0082355,0.0061356,0.0069295,-0.061663,-0.083546,0.06061,0.011856,0.014886,0.0064672,0.0083036,-0.0020809,-0.08011,0.012657,0.0066422,-0.049134,0.017386,-0.089358,0.0076235,-0.016459,0.0059395,-0.019899,0.0063556,0.0061292,0.0040519,-0.0093321,-0.052444,0.017775,0.0064753,0.012174,-0.0055953,-0.065473,-0.069215,0.01094,-0.016513,-0.035621,-0.02398,-0.0040863,-0.01266,0.0077501,0.0079807,-0.055141,-0.027124,-0.053657,0.0010784,0.010762,0.0047998,-0.0010262,-0.047344,0.0070119,0.015174,0.013005,0.016904,-0.020411,0.0094849,-0.0391,0.013051,-0.0090249,0.018754,-0.042535,-0.0042221,0.002215,-0.051658,0.0077797,-0.014181,-0.074983,-0.10654,0.0056541,0.0060238,-0.03265,-0.02373,0.012118,-0.042602,0.011008,-0.048915,0.0041988,-0.00067852,0.015469,-0.054262,0.0099748,0.0020618,-0.032679,0.0086237,0.0067472,0.0010078,-0.011877,0.0027619,0.0034647,-0.0082901,0.0086747,0.015419,-0.083227,0.01384,-0.05961,-0.029778,0.0097379,0.014485,-0.05173,0.012757,0.00828,0.010967,0.0064338,0.0083574,0.0066987,0.00047396,0.00068174,0.015447,0.011406,0.013469,0.0036113,-0.035872,0.011616,0.0049297,-0.0047345,-0.0019439,0.0076774,-0.046877,0.0014221,-0.051166,0.011843,-0.070495,0.0074904,-0.012752,0.0094313,-0.051077,0.0042318,0.0056312,0.0057313,0.0073717,-0.029408,-0.032773,0.0014552,-0.00047868,-0.039535,-0.049691,-0.020908,-0.056031,0.0033533,0.011906,0.00053951,-0.083459,-0.072221,0.011842,0.0074452,0.013182,0.021249,-0.01466,-0.060172,0.0019715,0.013502,-0.021199,-0.0046964,0.024005,-0.0094023,0.014145,-0.00020336,-0.10219,0.0050631,0.010768,0.0072103,-0.091708,-0.0098915,-0.01997,0.0090314,0.0024583,0.0021742,0.00041571,-0.028625,-0.053751,0.0093739,-0.021644,-0.016507,0.021057,0.0058288,-0.047048,0.0097627,0.012876,0.011592,-0.03009,-0.018684,0.0068402,0.022066,0.0051795,0.0072069,0.020709,-0.026425,0.017008,0.008959,0.029819,0.0023217,0.0048261,-0.0028965,-0.0044075,-0.0063084,-0.069476,0.013512,-0.057412,-0.063998,-0.026519,0.026803,-0.0082626,0.0053231,-0.042749,-0.10802,0.015415,0.013231,0.0098923,0.0025143,-0.041806,-0.055789,-0.0072661,0.014618,0.014274,0.0030521,0.0088954,0.0075194,-0.0055062,-0.070936,-0.0041641,0.0094475,0.0024197,-0.0006844,0.031349,0.022718,-0.039581,-0.015598,0.006655,0.0058035,-0.00029528,-0.007811,-0.0070998,-0.043304,0.01265,0.0037115,-0.036878,-0.021076,0.0093401,0.0071305,0.0050191,0.018986,0.014859,0.0080488,0.0034429,0.0041369
0.0048148,-0.0026497,-0.051789,-0.0067981,0.00020143,0.012815,-0.058014,0.008335,-0.056403,-0.056034,0.0029279,0.0083475,-0.0064392,-0.018449,-0.022736,0.0054202,0.0039976,0.01183,0.017984,-0.027224,0.017333,0.01352,0.0021602,0.0034455,-0.0052159,-0.051372,-0.029683,-0.047029,-0.023015,-0.018234,0.010564,0.016953,-0.0072205,0.010294,0.0055575,-0.05037,-0.047884,0.011143,0.0023258,-0.091299,0.012832,0.0056068,-0.061189,0.0082584,-0.067148,-0.03473,0.0069754,0.040454,-0.012711,0.0071048,-0.012047,-0.046938,0.010073,0.0067512,0.00095886,-0.060011,0.0077521,0.0091358,0.0085336,-0.0044571,-0.071783,0.004567,0.0067513,-0.032255,0.015252,0.023201,-0.080586,0.015542,-0.019732,0.0055487,-0.031708,-0.041622,0.0098553,-0.086475,-0.015681,-0.040669,-0.0016725,0.016965,-0.0076355,-0.021405,0.00082326,0.0091864,0.0057783,-0.010712,-0.030719,-0.03015,-0.024732,0.0053547,0.010084,0.016213,0.00094047,0.0056653,-0.068387,0.016702,-0.010224,-0.026455,0.00084938,0.0084693,-0.00014735,0.0013888,-0.031368,-0.04489,0.015341,0.015657,-0.025782,0.011825,0.015412,0.0031039,-0.00077309,0.0037763,-0.076728,0.0004419,-0.012608,0.011418,-0.03706,-0.061539,0.015927,0.0076061,0.0080539,0.015834,0.010541,0.0070214,0.0097311,-0.096516,-0.00012187,0.023701,0.00057989,-0.071882,0.013709,-0.033717,-0.062722,0.015114,0.0037196,-0.0055649,0.020804,-0.0057208,-0.043781,-0.047379,0.0068253,0.014368,-0.0010396,-0.0062171,-0.021708,0.0070697,0.015293,-0.039682,-0.00041418,0.0098699,-0.0082654,-0.052022,-0.025702,0.014303,0.0095445,0.0050526,-0.047902,-0.027506,-0.062199,-0.010888,0.031833,0.018818,-0.054484,-0.029454,-0.0031571,0.011542,0.014593,-0.051507,-0.00043127,0.0071426,0.0052374,0.0014847,-0.010436,-0.051535,0.0072134,0.0046401,0.0012985,-0.00022849,0.016105,-0.029825,0.0079519,0.0080623,-0.0028003,-0.019242,-0.042099,-0.057068,-0.0016023,0.010645,0.0071037,0.0071332,0.013165,0.010932,0.0076152,0.0071727,0.00073805,-0.042629,-0.015776,0.0098135,-0.01979,0.0026932,0.0013908,0.011387,0.0094571,-0.043005,-0.02228,-0.085934,-0.07529,0.00079975,0.00049323,-0.055537,-0.054657,0.010468,-0.036003,-0.081019,0.016352,-0.0039963,0.0054778,0.0085114,0.026002,0.015054,0.016629,0.0059219,0.0069059,-0.043818,0.0066714,0.006358,-0.046318,-0.031482,-0.056916,0.0046066,0.0067199,0.018185,0.012214,0.00095248,-0.0030351,0.0083206,0.004895,0.0083271,0.00094645,0.011322,-0.0030354,-0.076555,-0.079415,-0.013936,-0.049618,0.007921,0.0056865,-0.027992,0.022407,-0.00019124,0.0043627,-0.0099289,0.009115,-0.019571,0.0084383,0.0075759,0.012847,-0.034671,-0.052525,-0.016224,0.02487,-0.047588,-0.066622,-0.0011204,0.0076421,-0.037308,0.0071056,-0.062366,0.014787,-0.019015,0.020321,-0.0011976,-0.0023509,-0.0084928,0.0049774,0.013655,0.026203,0.0034024,-0.0051036,-0.041596,-0.064177,0.0089358,-0.048073,-0.0011171,-0.039335,-0.046001,0.0047936,0.0055382,0.019934,0.010042,-0.069583,-0.0048763,-0.00080655,0.016346,0.0048961,-0.033266,0.0067772,0.0188,0.045352,0.014845,0.004472,-0.020063,0.014352,-0.046487,0.0052528,0.008405,0.0018604,-0.097163,-0.018525,0.0057265,0.0047802,-0.0093954,0.015241,0.00022261,0.0042914,0.0095465,0.013551,0.012982,0.011159,0.0093067,0.0025397,0.0076337,0.0073471,-0.034245,-0.0035004,-0.042494,-0.056684,0.0078969,-0.0051521,0.0084036,0.0034318,0.00091118,0.0053148,0.0053685,0.0042748,0.017677,-0.10539,-0.0093331,0.0016956,-0.0023535,0.0068794,-0.052298,0.0089068,-0.027869,-0.033742,0.0091067,0.0046965,0.010866,-0.010898,0.01232,0.011527,-0.062746,0.0016044,0.00033404,0.0058168,0.014501,0.010044,0.0037393,0.0076294,0.0021616,0.0081534,0.011208,0.0049255,0.009413,0.018212,-0.0082024,-0.0038567,-0.056826,0.002182,-0.037529,-0.007772,-0.0034544,-0.048973,-0.057358,-0.058481,-0.015091,0.0067476,0.013807,-0.0557,0.007891,0.0079359,-0.044112,0.0041582,0.0067256,0.0031335,-0.050133,-0.02688,0.0067569,-0.028748,-0.019785,0.0072085,0.0068682,-0.062894,-0.039244,0.0043204,0.013642,-0.077175,-0.00041725,-0.0048319,-0.0002397,-0.029228,0.026005,-0.040564,-0.027558,-0.094194,-0.004108,0.017955,-0.060028,-0.041184,0.0088084,0.012902,0.0026748,0.0096797,0.027962,0.0094664,0.0024712,0.0092053,0.00485,-0.013754,-0.0097491,-0.079662,0.0080343,-0.013656,0.0012843,-0.092286,0.0083124,0.0059993,0.0057677,0.0029009,-0.0042109,-0.029993,-0.0224,0.0072437,0.00033748,0.014528,-0.033155,-0.018087,0.0096498,0.0076365,-0.0014852,0.010508,-0.037647,0.0096287,-0.043143,0.010875,0.018559,0.019795,0.0039233,-0.042412,0.003768,0.011477,0.0055739,0.016618,0.0076301,0.0064811,-0.10122,0.0063401,-0.0543,0.0068779,0.030852,0.0095481,0.0067184,0.0098218,-0.024371,-0.053108,0.0082869,0.0034905,0.0059058,-0.055714,-0.05207,-0.0068142,0.005777,-0.047661,0.010706,-0.021849,-0.019197,0.0010137,0.0074553,-0.028497,-0.023923,-0.03124,0.012704,0.012797,0.0088629,-0.0039438,-0.00070246,0.0021918,0.0095854,0.012305,0.0060694,-0.035759,0.0045307,0.0057376,-0.00019236,-0.070222,0.0037635,0.0013759,-0.00037193,0.0117,-0.0038688,0.0071476,0.0073273,0.0061665,-0.012209,0.0064921,0.016877,-0.026435,0.0084188,-0.035637,-0.016504,0.0045082,0.018608,0.0063924,-0.045572,0.0029875,-0.014193,0.0078527,0.0033282,0.006199,0.005724,0.0078256,0.0059988,0.026435,0.016796,-0.04101,0.013547,0.0030968,0.0019812,-0.065635,0.0049247,0.0016195,-0.033946,0.012331,-0.059906,0.01308,0.01184,0.0050908,-0.051257,-0.043188,-0.075447,0.0020922,0.006356,0.0044981,0.013871,0.0027529,0.0062268,0.01359,-0.025994,-0.020723,-0.033496,-0.0037418,-0.036465,0.0086585,-0.0019504,-0.010006,0.020542,0.007766,0.0047854,0.00048974,0.0084306,-0.0015919,-0.0049717,0.010438,0.0013533,0.015714,-0.013742,-0.042098,9.162e-05,0.01052,0.0045005,-0.00046942,-0.0022341,0.0066532,0.011114,0.013799,0.002402,0.0087211,0.0069454,-0.021871,0.0067811,0.010116,-0.064774,0.010291,0.009503,0.016525,0.0014277,0.0055813,0.012265,-0.0053748,0.00060865,-0.034891,0.0012174,0.0030729,-0.033859,0.016193,-0.040821,-0.0066539,-0.074176,-0.00097875,-0.023696,0.014806,0.006409,-0.035524,0.010617,-0.076511,-0.0012308,0.0049582,-0.068186,0.0087682,0.0039365,0.013846,-0.023074,0.0051212,0.0079055,-0.072503,-0.070802,-0.080862,-0.064898,0.022599,0.0036328,0.0070051,2.8039e-05,0.0024169,9.8519e-05,0.006325,-0.0025864,0.0084797,-0.0060852,0.014522,-0.0044773,0.0098134,0.0050286,0.02135,0.0092203,0.0014072,0.013867,0.0068705,0.012663,0.014989,0.022022,0.0055319,-0.10936,0.014728,-0.029595,-0.065159,-0.021006,0.0065812,-0.030139,0.0080343,0.0050836,-0.017654,0.015108,0.013848,0.012507,0.012051,-0.067005,0.0040208,0.0061752,-0.078415,-0.0030703,-0.054262,0.0069658,0.017985,0.0013248,-0.0011804,0.0084792,-0.054556,0.0060799,0.0010649,0.0018769,0.0037811,0.0063701,0.015451,0.00065757,0.023226,0.016939,0.0078641,0.0039034,0.011027,-0.039221,0.009447,0.0028398,0.0042752,0.018329,-0.020136,-0.0089067,0.015447,-0.001817,0.0091406,-0.0081243,0.0077769,0.0071895,-0.024367,0.036905,0.013102,-0.046592,-0.010551,0.014544,-0.0097908,-0.011934,-0.065509,-0.045783,-0.0013282,0.0045104,0.010623,0.010114,-0.032793,-0.016088,-0.0060142,-0.048507,0.0086477,-0.053771,0.0033001,0.024252,0.00069466,-0.042346,-0.049554,-0.00083108,-0.061306,0.016638,-0.0045696,-0.017866,-0.054901,-0.017941,-0.026614,-0.021232,0.003438,0.0034787,0.0029155,-0.035836,-0.036741,0.009361,-0.073281,0.014644,0.010484,-0.018904,0.0033623,0.007251,0.0085459,-0.0095101,0.016819,0.015522,0.011892,-0.045894,-0.044981,0.010846,-0.048342,0.0012557,0.011863,-0.014874,-0.058242,0.0016487,-0.027809,0.0065675,0.011658,0.0096007,0.011665,-0.051486,-0.041461,-0.049462,0.016862,-0.028509,-0.062328,-0.048013,-0.038546,0.019166,0.0080571,-0.015604,0.025091,-0.04609,-0.0010364,0.0089096,0.0092774,-0.01274,-0.049003,0.0068451,-0.037452,-0.024772,-0.0021919,-0.037869,-0.0034009,0.0049277,0.016987,-0.0013814,0.013892,-0.011187,-0.032184,-0.0029929,0.0017091,0.0056012,0.026553,-0.0025403,0.0053609,-0.060066,0.0080304,-0.0074178,-0.01353,0.0066146,0.013761,-0.068322,0.0088718,-0.061237,0.0092729,0.0055656,0.0014502,0.011664,0.027222,0.0097234,-0.0010172,0.0017675,0.0067914,0.016665,0.015525,0.0098968,-0.077423,0.0043755,0.0054921,-0.002857,0.0020324,0.010234,0.0074821,-0.025854,-0.027045,-0.081484,-0.025729,0.019303,-0.046194,0.0082703,0.020096,0.0018132,-0.02323,0.013973,-0.056944,0.012167,0.0113,0.0020798,-0.0052543,-0.068305,0.0055313,-0.034559,-0.040607,-0.048751,-0.042384,0.0077311,0.012845,0.0022033,0.025523,-0.052127,0.0034328,0.0026275,-0.042083,0.013344,-0.053029,0.0018254,0.0035226,0.010327,-0.037891,-0.084307,-2.8089e-05,0.0076429,-0.035613,-0.032369,0.0016917,0.0097424,-0.0023778,-0.048672,0.0029092,-0.061492,-0.071563,-0.036243,0.0073564,-0.014753,-0.026183,0.0072754,0.021724,0.010398,-0.040648,0.0015394,-0.041738,-0.0047589,-0.028332,-0.036248,0.0077247,0.01673,-0.051412,-0.0020287,0.010053,-0.077025,0.0096527,0.015898,-0.0044367,0.0087799,0.015845,0.0036895,0.0038589,-0.027256,-0.026314,0.015713,-0.055438,-0.04379,0.011943,0.014428,-0.00012593,0.025296,0.0046468,-0.02143,0.0033217,0.0081383,0.018911,-0.058685,-0.010351,-0.020158,-0.038611,-0.065997,0.012737,-0.020207,0.021486,-0.018836,0.0047449,-0.0020376,-0.084606,0.0044313,0.022054,0.029804,-0.027405,-0.058292,-0.046598,-0.032675,-0.019287,-0.014388,-0.0029998,-0.00023111,0.0038928,0.0048645,-0.063045,-0.039162,-0.030363,0.0026928,-0.0031843,0.01159,-0.0086068,0.0093719,-0.081462,-0.032394,0.0044928,0.00039982,0.0070764,0.014459,0.0033527,-0.034781,0.0065481,0.007689,0.0084644,-0.017703,0.0123,0.016176,-0.045351,0.0098773,-0.078851,-0.067082,0.0051039,-0.047101,0.0069203,0.0049689,0.04507,0.016941,0.0077751,-0.040417,-0.00074763,-0.051575,-0.0049475,0.012955,-0.051026,0.0029383,0.0093129,-0.10259,0.014715,2.8556e-06,-0.047812,-0.036143,-0.0865,0.0016591,0.005942,-0.01257,0.0031222,-0.044729,0.0020464,-0.070034,-0.031145,-0.0041785,-0.056092,0.001984,0.0044024,-0.0093114,-0.051501,-0.025847,0.0025535,-0.06451,0.013035,-0.00078953,0.014074,-0.0036834,-0.04336,0.021851,-0.056816,-0.0044199,-0.0012737,0.01134,0.0086092,-0.085208,0.0152,-0.025039,0.013822,-0.032764,0.01582,-0.069462,0.0078128,0.012544,-0.049817,-0.080084,-0.08387,0.012901,-0.0034105,0.015015,0.004753,0.0014459,-0.062942,0.00077743,0.017323,0.01152,-0.00066592,-0.0064127,0.0056259,0.014828,-0.012357,0.0073771,0.0060284,0.0059779,0.0020767,-0.0029885,-0.018216,-0.0023734,-0.022502,0.003967,0.0097268,-0.0076495,-0.077195,0.01393,0.010946,-0.00079351,0.018073,-0.031649,0.011172,0.014148,0.0062283,-0.049522,0.00084018,0.0026057,0.0035315,0.0069297,-0.074296,-0.04105,-0.053684,0.013982,0.0072181,0.0066176,-0.009551,-0.04825,-0.039892,0.01072,0.011381,-0.0053001,0.010184,0.012228,0.0039734,-0.050106,-0.003408,-0.0011417,0.0046053,-0.018628,-0.036,0.0091418,0.0043895,-0.020587,-0.0374,-0.023577,0.011347,-0.047933,-0.054693,-0.040557,-0.039958,-0.040392,-0.06191,-0.011749,0.0050422,0.008211,0.014099,-0.0081348,0.014827,-0.044567,0.01217,0.0050328,0.0082946,-0.0016853,-0.005587,0.012372,0.001709,0.0091101,-0.041692,-0.012018,-0.024257,-0.0136,-0.066214,-0.032996,0.0089652,0.0062696,0.010015,0.0083454,0.0084534,0.001821,-0.0056042,-0.074686,0.0066847,-0.014328,0.0084273,-0.070308,0.0040926,-0.013129,-0.0013599,0.0081666,0.011447,-0.091799,-0.00084269,0.0019545,0.00090167,0.00139,-0.028653,-0.015047,-0.018723,-0.039342,-0.058487,0.0037025,0.0080072,0.0099431,-0.055969,-0.018302,0.020756,-0.029476,-0.028664,0.0054639,-0.07025,0.00083823,0.0028711,0.01673,-0.024657,0.0075949,0.0086379,-0.013899,-0.0092394,0.0025996,-0.033344,0.0012513,-0.032692,0.0076424,-0.028132,-0.0072205,0.0081303,0.0025839,-0.023466,-0.023803,0.005655,-0.06714,0.017996,-0.014774,-0.048407,-0.017419,-0.0048842,-0.0011812,0.0064673,-0.0085251,0.011344,0.010928,-0.02648,0.0050165,-0.0012221,-0.0056271,0.0075579,0.009338,0.0037867,0.0058535,-0.0097045,0.00682,-0.0021578,0.0052938,0.014054,-0.027847,0.029398,0.00062012,-0.0035519,0.012495,0.014987,0.0086974
-0.031566,0.0054273,0.0054925,-0.014275,0.020338,0.0059159,-0.047228,0.0091153,-0.07099,0.010274,-0.0017022,-0.010738,0.00304,-0.022526,0.0077822,0.0091113,0.002845,0.0044204,0.015127,0.012479,0.00497,0.0054667,0.0017746,-0.063181,-0.016637,0.0064303,-0.016659,-0.064845,0.014308,-0.030126,0.016919,-0.034517,0.020452,0.0049617,0.012114,0.013741,-0.025011,0.016789,0.0001743,-0.0016471,-0.0020744,-0.041209,-0.0024608,-0.11367,-0.090848,-0.021175,0.011332,-0.052244,-0.13488,0.01879,-0.044284,-0.0054385,0.012615,0.012734,0.012852,-0.00033848,0.0099522,-0.00035412,0.0087477,-0.028662,0.0095057,-0.096513,-0.0095833,-0.023273,0.0093197,0.025064,0.003484,0.012389,-0.042133,0.017822,-0.053745,-0.029684,-0.00064172,0.0025242,-0.08787,-0.0039273,-0.022609,0.0094346,-0.0057698,0.025246,0.013173,0.011319,-0.086579,-0.037005,-0.0026314,-0.027985,0.030071,-0.0036197,-0.0001804,-0.046921,0.0072988,0.014875,-0.066192,0.012926,0.027658,-0.019887,0.0099803,-0.012562,-0.049709,-0.10138,-0.061455,-0.10326,0.020389,0.008953,-0.025505,0.01063,0.012664,0.01169,-0.0070319,-0.027589,0.014191,-0.018432,-0.039125,0.012609,-0.0071272,-0.079693,0.0084597,-0.041194,-0.06129,0.012429,-0.077122,0.0075017,0.014466,0.0089232,-0.049064,-0.0033409,0.017847,-0.06472,0.00056711,-0.019627,-0.027672,0.0092908,-0.00091316,-0.080203,0.0037719,0.020424,0.018054,0.0038069,0.0037502,0.008494,-0.0084343,0.016845,-0.0059135,0.013167,-0.066942,0.014058,0.0029456,-0.10479,0.0047122,0.034727,-0.053136,0.015472,0.008015,-0.0023411,-0.009925,-0.057359,-0.084195,0.037218,0.0022263,0.0085566,0.0013933,0.0022562,-0.016449,0.014479,0.017042,0.0054994,-0.012438,0.016769,-0.046396,0.015015,-0.0057655,0.011324,0.013347,-0.084933,0.0070853,-0.05276,0.014787,-0.0028095,0.005483,0.013785,-0.070944,0.033948,0.0046026,-0.012011,-0.018684,0.0033334,0.0060001,0.0082913,0.0064125,0.018013,0.014994,-0.03354,-0.0025497,-0.081378,-0.11839,0.011059,-0.0003844,0.026985,0.0063528,0.016496,0.017215,0.0066658,-0.00099797,-0.052463,-0.026701,0.0275,0.011231,-0.041052,-0.0058061,-0.058474,-0.047722,-0.048731,0.0063049,0.0029147,0.013756,-0.014842,0.0013386,-1.4223e-05,0.0038394,0.013743,-0.046262,0.0057429,-0.05393,0.0062662,-0.052559,-0.007091,-0.055358,0.012405,-0.051061,0.012244,0.018062,0.010667,-0.023721,0.0020539,0.013862,-0.0099309,-0.02307,0.0071882,-0.067113,0.014336,-0.037803,-0.0007052,0.0076913,-0.035237,-0.00062019,-0.028581,0.0092332,-0.038404,-0.027891,-0.09053,-0.070763,-0.021843,0.014937,-0.0003908,0.0017737,0.010603,-0.086738,0.0063544,-0.018828,-0.066972,0.010609,0.0063852,-0.016238,0.008006,0.0099766,-0.0019181,0.020753,0.0010784,-0.0074944,-0.084515,-0.0060388,0.00026927,0.0078295,0.0034259,-0.066242,-0.042917,-0.08803,-0.055766,-0.0024479,0.016876,-0.02491,-0.089588,-0.04859,0.024413,0.0043759,-0.023313,-0.045861,-0.041114,0.010302,-0.12692,0.015122,0.0055765,0.0019901,-0.038634,0.0070871,0.0082452,0.014605,0.0193,-0.04668,-0.018406,0.015227,-0.086408,-0.089015,0.011404,-0.056,-0.01972,0.0039106,0.012207,-0.004029,0.012009,0.0043358,-0.079551,0.0097538,0.0016701,0.0092448,-0.068171,0.019138,-0.063345,-0.070791,-0.016315,0.014954,-0.034354,0.0004788,-0.05058,0.0023753,-0.00090518,-0.035076,-0.00063216,0.007427,9.556e-05,0.011635,0.0060184,0.0053871,0.0086231,-0.094847,-0.0014132,-0.010971,0.017987,-0.020637,0.0091324,0.013962,-0.11421,-0.0011147,0.020155,0.0059865,-0.043571,0.013311,0.011187,0.017212,0.0052559,0.0037441,-0.056033,0.0062559,0.012034,0.010041,0.007728,0.0058947,0.007192,0.01831,0.014724,-0.01664,-0.086892,0.022014,-0.0034725,-0.028341,-0.0027418,-0.052026,-0.025438,-0.10208,-0.06862,-0.027597,-0.044791,0.00929,-0.09936,0.0028867,0.01223,-0.028603,-0.095,-0.020525,0.01161,0.0048302,0.018585,0.0043317,-0.0040161,-0.00029416,0.020196,-0.10015,-0.052649,-0.078263,-0.071971,-0.0038613,-0.0072601,0.0044005,0.01355,-0.0017283,-0.038286,0.0019546,0.013614,0.012775,0.0066168,0.011439,-0.072176,0.0062097,0.0018837,0.0071091,-0.059332,0.003421,-0.064959,-0.034947,0.011797,-0.086846,-0.028156,-0.0025077,0.0014603,0.019148,-0.0042649,0.0065296,-0.018257,0.00097446,-0.063548,-0.090446,0.011492,-0.096398,0.0054666,0.0013859,-0.0019341,-0.017868,-0.038226,-0.045206,-0.041428,-0.088917,0.0031386,0.0073987,-0.015519,-0.046038,-0.0040094,-0.053056,-0.067721,-0.065184,-0.06632,0.0084535,0.0048226,-0.042278,0.014711,0.01493,0.00089542,-0.01627,0.018826,-0.0065541,0.0045676,0.02227,0.00055664,-0.041567,-0.0033175,-0.050226,-0.031998,0.0057595,0.01436,-0.077199,0.031053,0.0028331,0.010065,-0.059052,-0.051783,-0.056883,0.0070822,0.013958,-0.00018792,-0.052488,-0.038314,-0.090749,0.01287,0.0078183,0.0073929,-0.042477,0.0096179,0.0022769,-0.020997,0.00033767,-0.0039195,0.017919,0.018028,0.0015377,-0.098419,-0.034039,0.020022,0.01491,-0.030613,-0.061819,0.014384,0.015658,-0.052431,0.0018261,-0.043373,-0.027105,0.016286,0.021822,-0.0063836,0.0098421,0.00868,0.0096293,0.014018,0.0070299,-0.0016253,-0.034709,-0.057732,-0.048594,0.020338,-0.023458,-0.10509,0.0101,-0.042737,0.011337,0.019367,-0.035378,-0.10059,-0.0019711,0.0017285,0.0060948,0.010539,0.008257,0.017041,-0.00091867,0.012024,0.0039021,0.024698,0.010151,-0.09266,0.00085422,-0.079816,-0.088911,0.0066448,-0.067936,0.014582,-0.002061,-0.030089,-0.0051215,0.012645,0.026864,0.014733,-0.028871,0.012934,-0.095857,-0.060944,0.029126,0.0078299,-0.010395,-0.063551,-0.05354,-0.05416,0.0022816,-0.022901,0.0044521,-0.067426,0.0060651,-0.052341,-0.040757,0.018513,0.015007,-0.034578,-0.00084111,-0.033944,0.013328,-0.031297,0.017166,0.0055659,-0.00029686,0.0048261,0.0088823,-0.057793,-0.085218,0.012071,0.011441,0.0072774,0.0087904,0.008945,-0.083484,0.0095337,0.0097103,0.0074899,0.01521,0.029139,0.016171,-0.030785,-0.0068164,0.020066,-0.033994,-0.0011328,-0.054621,0.0063051,0.012111,0.0084808,0.01381,0.0048707,-0.022563,-0.027,-0.05847,0.028721,0.023398,-0.0027659,-0.001536,0.02204,-0.030484,-0.064769,-0.046494,-0.0051618,-0.05339,0.01781,0.012679,-0.049644,0.0056092,0.010756,-0.037706,0.0009436,-0.049467,0.016199,0.015506,0.0021489,-0.043975,-0.00027118,-0.050568,0.0017669,-0.024101,0.0036441,0.0027109,0.011949,0.01168,-0.047366,-0.0034127,-0.043799,0.014557,0.0016901,-0.015719,0.022641,-0.045869,0.01748,0.010303,0.014473,0.012829,0.010801,0.033581,0.024216,-0.066032,-0.031122,0.014855,-0.048513,0.0083136,0.0093521,-0.0041887,-0.087601,-0.095933,0.016105,0.015329,0.007978,0.0040945,0.010916,-0.037188,-0.015459,0.0055772,0.01457,0.013557,0.013907,0.011727,-0.035215,-0.063963,0.00049765,-0.0096366,0.011693,0.014447,0.0038034,-0.05713,0.021386,0.0057657,0.0054282,-0.089121,-0.099225,0.011415,0.0016023,0.013133,0.0052956,0.014019,0.0052213,0.002638,-0.0044147,0.014814,0.005046,0.012552,-0.091586,-0.0006591,0.023047,-0.074542,0.0075395,0.0096155,0.013521,0.0065343,0.0035674,-0.032274,-0.0049413,0.010611,-0.020435,-0.022914,0.0029823,-0.09168,0.015175,0.009052,0.026838,0.0019914,0.0057653,0.0071596,-0.077219,0.0044381,0.0048771,-0.0059042,-0.037053,-0.085245,0.00010779,4.8883e-05,-0.036253,-0.0027792,-0.052451,-0.061861,0.019659,0.013404,0.005952,-0.070605,-0.070974,-0.00022755,-0.066458,0.002805,0.023624,-0.022863,0.0052087,-0.065262,-0.062482,-0.073569,0.0029063,0.016712,-0.023581,-0.0047145,-0.033494,0.0072478,0.0098466,-0.033681,0.014737,-0.035212,0.017144,-0.013994,-0.021895,0.00022086,0.0066823,-0.050112,0.010033,0.016576,0.023967,0.0053769,0.0039782,-0.013719,0.01334,0.006995,0.019119,-0.060823,0.00062873,5.1549e-05,0.0037024,-0.014489,-0.018605,-0.0039654,-0.011816,-0.065336,-0.10788,0.010785,-0.097938,0.0027643,-0.090673,-0.014322,-0.052694,0.019605,-0.094492,-0.061344,0.014504,0.014791,-0.070367,0.015328,-0.060083,0.0029855,-0.026095,0.011589,0.011819,0.0028901,0.0060117,0.0252,-0.0001345,0.014121,-0.036022,0.0054293,-0.087425,0.035945,0.013271,0.015526,0.0084336,0.015342,0.019501,-0.011731,0.024393,-0.00018406,0.024196,0.013027,-0.084701,0.011035,-0.01705,0.0037822,0.013025,-0.0023995,0.016563,-0.0022459,-0.030915,-0.058599,0.011582,-0.056314,-0.058136,-0.076361,-0.00032902,-0.031809,-0.00024008,-0.077421,-0.0060227,0.017013,-0.00023261,-0.027023,0.015004,0.0147,0.021253,-0.08551,0.011114,0.0061,-0.084842,-0.0048732,-0.00044402,0.0058379,-0.0041416,0.0029076,-0.007801,-7.0127e-05,-0.0048546,0.0060124,-0.059006,0.01443,0.01862,-0.051699,0.0013139,0.015464,0.00075826,0.0090325,-0.040665,0.016737,0.001566,0.0083536,0.031486,-0.05344,-0.050298,-0.070911,0.018959,0.0022324,0.0015812,-0.066352,0.017421,-0.084069,-0.0085043,0.017159,-0.0035974,0.019476,0.0076083,-0.019532,-0.0020283,0.003342,-0.0042568,0.0034054,0.007587,-0.024968,0.0053333,-0.009824,0.0091633,0.0051284,-0.03428,0.0024567,-0.010797,-0.071753,-0.077038,0.0071533,0.0015617,0.022199,-0.028423,-0.080348,0.010106,-0.047337,0.0008967,0.0038606,0.011835,0.0075628,0.010574,0.012688,0.0098899,-0.036258,-0.026525,0.0021965,0.013893,0.013708,-0.070698,-0.056417,-0.014831,0.012253,0.0051501,0.0064387,0.0029123,0.012368,-0.083674,0.0092484,-0.024371,0.0085395,-0.048579,0.00088941,0.0032562,-0.016521,0.0093171,0.0050442,0.010148,-0.0041542,-0.064442,0.0009585,-0.0056876,-0.0031682,-0.012533,0.0085817,-0.014677,-0.069228,0.013642,0.01329,-0.040044,-0.04549,0.00034999,-0.00088799,0.010918,0.0069063,0.0096708,-0.019226,0.012025,-0.00039803,-0.047416,-0.04747,0.021109,0.0092259,-0.0015724,0.013811,-0.020338,0.017177,-0.073242,-0.010746,0.00064872,0.017829,-0.0050615,-0.040985,0.011599,-0.037946,0.024766,0.0084698,0.0052459,0.029109,0.00082681,-0.0999,0.028016,-0.0037685,-0.055554,0.0066267,-0.042841,0.0063023,-0.057698,-0.032762,-0.016572,-0.0055191,0.012275,-0.04467,-0.01627,-0.085319,-0.095,0.016782,0.014931,0.0066163,-0.067237,0.0027336,-0.027706,-0.067958,-0.0027467,-0.01074,-0.016741,0.0051915,-0.050824,0.0097592,-0.022116,0.0062262,-0.05428,0.0040293,0.013888,0.0025004,0.00090055,-0.0093398,0.0098641,0.0089227,-0.068457,0.02106,0.015725,0.0031448,0.00080925,0.018058,-0.052475,0.019087,0.011061,-0.067485,-0.00093906,-0.03094,0.01634,-0.048875,0.0017882,0.0073614,-0.024106,0.010439,-0.052214,-0.019089,0.016478,-0.039999,0.012837,0.002534,0.0039647,-0.07792,0.0081691,0.0018805,-0.053221,-0.00062739,-0.011411,0.0056612,0.019811,-0.0093069,-0.0019963,0.0040654,-0.029848,0.0026153,0.013821,0.0033745,-0.00029186,0.0095036,-0.066612,-0.027293,0.007065,0.0040847,-0.0013599,-0.0082881,-0.00064159,0.01011,-0.013533,0.012429,-0.0071606,-0.058329,-0.0026584,0.010453,0.0096232,0.021413,-0.057529,-0.016934,0.012961,0.01396,-0.010531,0.019424,0.017694,-0.0043706,0.0049364,-0.05336,0.013292,0.010963,-0.029956,-0.043436,0.013544,0.0063419,-0.00030924,0.0061425,0.0054797,0.021585,0.0072323,0.014318,-0.040751,0.00049926,-0.058999,-0.017243,-0.034636,0.0070308,0.022742,0.0039144,-0.002672,-0.0078488,-0.073512,0.0094834,0.01493,0.018758,0.0031271,-0.045578,0.0038822,0.018526,0.017226,0.0016379,-0.010835,0.010916,-0.0028995,-0.00071967,0.031828,0.0015652,0.012999,0.013008,0.010755,0.0093206,-0.064894,0.0048076,0.0084406,0.0056282,-0.074507,0.0041165,-0.037482,-0.0024444,0.0044073,0.018187,0.014813,0.01101,-0.0037647,0.00396,0.017136,0.009589,-0.062738,-0.035413,-0.053469,-0.076662,0.017421,0.0039162,0.0021748,0.0045716,-0.017467,-0.012603,0.010697,-0.016817,-0.038169,0.014634,0.0081832,0.0051511,-0.095384,0.0055537,0.0051978,-0.00064591,-0.0039044,-0.016671,0.0068819,-0.0052996,0.0044787,0.003051,-0.11213,0.035723,0.016256,-0.044756,0.004026,-0.0024908,-0.061763,0.026434,0.015011,0.017279,-0.0047111,0.014376,0.01053,0.0079313,-0.065772,0.0026426,0.0064152,0.011919,-0.023145,0.016307,0.017288,-0.042227,-0.056727,-0.027032,-0.056931,0.016457,-0.024924,0.0046159,0.0091876,0.0058449,-0.0044064,-0.066293,-0.059707,0.014231,-0.019458,0.011737,-0.03224,0.011551,0.0022017,0.0061896,0.011143
0.015939,-0.035154,0.0085697,0.0145,-0.037886,0.012378,-0.0014401,0.016711,-0.002872,0.0023178,-0.0038517,0.016392,-0.074684,-0.11883,-0.011859,0.011551,0.0096299,0.010826,-0.00045295,-0.042149,0.015071,0.017424,-0.0012555,0.0036381,-0.037484,0.0037892,0.0069448,0.0032031,0.013734,-0.078989,0.0024699,-0.0013124,-0.020709,0.010521,0.018181,-0.051469,-0.069077,0.00060145,-0.042988,-0.0012888,0.0035787,-0.00046401,-0.065162,0.0022399,0.0048564,-0.018326,0.016898,0.0045399,0.0075976,0.0057469,0.0049914,-0.061442,1.1825e-06,0.0008843,-0.048549,-0.06635,0.0099869,0.012102,0.01633,-0.036724,0.011388,-0.11688,0.010786,-0.067494,0.006792,0.012442,0.0054826,0.0011163,-0.0023201,0.0072404,0.00047102,-0.080642,0.0053149,0.010726,-0.05747,-0.042451,0.01265,0.023855,-0.085459,-0.00075632,0.0012674,-0.082016,0.0079032,-0.065465,-0.072095,-0.0026975,-0.085607,-0.039363,0.027373,-0.00093089,-0.0050511,-0.0031106,-0.1128,0.0029448,0.014322,0.013025,-0.057267,0.0044532,-0.049333,0.0023394,-0.090102,-0.02277,0.0087251,0.013933,-0.0051079,0.012091,0.0031607,0.016091,0.0096821,-0.023626,0.0064166,-0.06632,-0.0048121,0.013978,-0.1072,0.0076282,0.015886,0.00085191,-0.064664,0.012693,0.0032288,0.016016,0.011835,0.0048679,-0.0073112,0.0044264,-0.01357,0.0036837,-0.055676,0.017178,0.0025106,0.0074439,-0.033574,-0.049499,0.002665,0.019239,0.014013,-0.022418,-0.040129,0.011337,0.0014682,-0.0022388,-0.096955,-0.0039703,-0.1015,-0.047188,0.0061167,0.00087655,0.015343,-0.067366,0.010843,0.0095262,0.025848,0.010413,0.018551,-0.021612,-0.10176,-0.0051924,-0.036465,0.0087889,-0.0044375,0.0096441,-0.051947,0.013823,0.012836,0.022638,0.0098908,0.0016678,-0.0072555,0.018457,-0.042186,0.01455,0.016943,0.00084432,0.010902,-0.033009,0.013049,-0.055936,0.010088,0.012028,-0.10484,-0.0085284,0.021501,-0.030248,-0.03105,0.025943,0.010878,0.0037263,-0.031867,0.010018,0.02264,0.018819,-0.039812,0.0058862,0.0097428,-0.0047746,-0.032604,0.024244,-0.059123,0.0039031,0.010421,-0.068921,0.0059538,0.010373,0.0049734,0.013261,0.012027,-0.067857,-0.037201,0.0074925,-0.054527,0.00036979,0.014946,0.0047648,0.0044078,-0.018367,0.0084874,-0.042866,0.0034487,0.020684,-0.049814,-0.050732,-0.062814,-0.046075,0.0073762,-0.00083652,-0.010036,0.014763,0.011075,0.015267,0.010722,-0.00094495,-0.02869,-0.0032948,-0.081871,-0.032863,-0.0018131,0.010668,-0.093961,-0.069058,0.0086377,-0.065328,0.0027254,-0.056941,0.0089109,-0.0086693,0.0024977,-0.065303,0.0048779,-0.026513,-0.00039225,-0.042396,0.006042,0.005399,0.019358,0.011191,-0.1259,0.014088,0.002848,0.0023281,-0.0012364,-0.0017229,0.0012123,0.0053871,0.010563,-0.1024,0.018638,0.0037935,0.031352,0.0029672,-0.032883,0.014408,0.0078188,0.014866,0.0094848,-0.029734,-0.028895,-0.070089,-0.08814,0.030284,-0.003466,0.0057228,-0.044764,-0.043185,-0.0018164,-0.031444,-0.012946,0.021535,0.017781,-0.0033882,0.0059618,0.013029,-0.028568,-0.0024956,0.019433,0.0091816,0.015622,0.016943,-0.020198,-0.025848,0.0042005,-0.10526,-0.0040419,0.014948,0.02688,0.007856,-0.069029,0.010401,0.0018026,-0.082384,0.013685,-0.023593,0.019914,0.004698,0.01456,-0.0025121,0.0117,-0.0025898,-0.06754,0.015822,0.013158,-0.0079095,-0.048583,0.005518,-0.10022,-0.0053079,0.013156,0.020573,0.011837,-0.056283,0.018824,0.0085787,-0.055997,0.0031951,-0.0061044,-0.0041462,0.012849,-0.015216,-0.022094,-0.068031,0.016766,-0.01448,-0.087221,0.0073153,-0.089153,0.00060092,-0.02938,0.014268,0.0077652,0.0094892,-0.029418,0.0007541,0.029081,0.0098006,0.013068,-0.04066,-0.0081116,0.00069402,0.0031144,0.0055685,-0.038177,-0.0015497,0.011862,-0.050139,-0.058532,0.028631,-0.018295,-0.11828,0.0024566,-0.070387,0.008754,-0.056716,0.0067905,-0.021162,-0.040325,0.022536,-0.00070155,0.006255,-0.046785,0.011175,0.020279,0.010581,-0.070707,-0.063922,0.011414,0.029813,-0.0069942,-8.6061e-07,-0.002315,3.8909e-05,-0.022504,-0.0018701,-0.10179,0.0091532,0.0076049,-0.00027344,-0.093692,-0.053766,-0.032796,0.015807,0.0033966,0.044855,0.007724,0.0045761,0.0089776,-0.0073663,-0.050567,-0.048749,0.013395,0.0090566,0.0058725,0.0017542,0.002949,-0.070357,0.022703,0.002633,0.013473,0.033966,0.015597,0.012436,-0.013585,0.011995,-0.068625,0.020406,0.004274,-0.068438,0.0026767,-0.040054,0.0022853,-0.042704,-0.081312,-0.065128,0.014557,-0.033978,-0.030864,0.012567,-0.0084056,-0.087231,-0.00062748,0.0067744,0.0026938,-0.055506,0.0041888,0.0035693,0.015359,0.0048622,-0.0041922,0.016814,-0.052301,0.017162,0.018843,0.002829,-0.0074859,-0.084005,-0.018311,-0.016865,0.004687,0.013801,-0.046196,0.0022812,-0.0041026,0.0030174,-0.11159,-0.058123,-0.065474,0.0021038,0.019223,0.0037511,-0.044973,0.021519,-0.094483,0.014045,-0.028496,-0.043681,-0.019434,0.0035624,0.0021097,-0.016307,-0.033138,0.0053312,0.0089696,0.0082291,0.024335,0.0033941,-0.086649,0.017869,0.037205,-0.056361,0.012115,-0.038319,0.015063,-0.0060599,0.0041044,0.0061283,0.0096886,0.012625,0.011365,-0.030511,0.016888,-0.091111,0.015109,0.0030287,0.016042,-0.10374,0.0037916,-0.00094984,-0.010545,0.0013619,-0.068946,-0.00099965,0.0088755,-0.030284,0.0019582,0.01191,-0.017031,-0.082494,-0.025188,0.020362,-0.0048405,0.017128,0.010172,0.012047,0.0074461,0.0086498,0.011511,-0.034901,-0.050865,0.0007603,0.014479,-0.099462,0.006943,-0.015145,0.0098568,0.0050895,0.0028078,-0.03236,-0.089576,-0.056364,0.025266,0.007867,0.0073586,0.017025,-0.088756,-0.07097,0.029523,0.0021438,-0.050006,0.0033372,-0.027955,0.039912,-0.0061191,-0.020725,-0.0074553,0.0070073,0.0061745,-0.0059924,-0.0014259,0.0086092,0.010523,-0.0045346,0.006938,-0.083188,0.011471,0.058439,0.0067558,0.01769,0.0068851,0.012498,-0.00099859,-0.034021,-0.052209,0.018831,0.01518,-0.05451,0.0079123,0.015808,-0.04616,0.017644,8.0224e-05,-0.062901,0.023064,0.0054583,-0.013801,-0.057061,-0.0248,0.0057821,-0.012311,0.013824,-0.0016633,-0.066386,0.0092296,-0.079192,0.0064259,-0.0061314,-0.019502,0.0073749,-0.068456,0.016056,0.0040417,0.010882,-0.083487,0.010879,-0.09564,-0.050938,-0.0098081,0.0046809,0.0028323,0.0038224,0.013197,-0.024049,0.013311,-0.057297,-0.12221,-0.06554,-0.090295,-0.0040121,0.002034,0.0027151,-0.019138,0.00813,-0.030726,0.010624,0.016531,0.0083503,-0.041142,-0.024807,0.013057,-0.0087676,-0.084729,0.0041551,0.0068201,0.0097674,-0.023257,0.01941,-0.06158,0.0019934,-0.014488,0.013886,0.0025217,0.0069215,0.0071192,-0.031829,-0.10473,-0.058911,0.0020372,0.020914,0.012802,-0.048419,-0.093242,0.0056555,-0.0085423,0.0074545,-4.8515e-05,0.002987,0.0014125,0.0077944,-0.11029,-0.022602,0.020171,0.01375,0.0066863,0.018193,0.0037756,0.017605,-0.00086543,-0.011803,-0.038843,-0.023003,-0.041086,-0.057988,0.0037993,-0.0042686,-0.074827,0.016367,-0.033903,0.00171,0.010746,-0.00639,0.007727,0.016282,0.01562,0.013022,-0.091387,-0.008381,0.014816,0.0021974,0.0031591,-0.0816,0.032261,0.015695,-0.090826,-0.00083301,0.010211,0.012964,0.013496,0.010707,0.00478,0.0029489,0.037288,-0.045857,0.013709,0.0020379,0.0076748,0.0089936,0.0053918,-0.041691,-0.089434,-0.043384,0.02259,-0.086434,-0.085081,0.0090011,-0.0038506,0.012922,0.0020888,-0.081649,-0.0046742,-0.055899,-0.046707,-0.0087345,-0.0018632,-0.0078939,-0.048616,0.0076299,-0.0053302,-0.0023801,0.0090517,-0.10952,0.0021857,0.01358,0.00051686,0.0014468,0.0016365,0.0092492,0.006606,-0.096741,0.0089434,-0.0001445,0.009428,0.0058529,0.010765,-0.0058907,-0.046313,0.0059003,-0.045258,0.0054332,0.0062339,0.0018827,0.0034375,-0.067863,-0.095251,0.013115,0.0023946,0.0064079,-0.059826,0.0070092,-0.065445,-0.084371,0.0059654,0.016068,-0.0022802,-0.0016347,0.00091199,0.013054,0.019759,0.0026959,-0.00072959,0.001061,-0.051713,-0.0011917,0.023115,0.00059834,-0.070869,0.00076194,-0.0064918,-0.018256,0.012173,0.0030117,-0.018863,-0.051476,0.010646,-0.053848,0.006445,-0.011737,-0.053995,0.0061766,0.0080529,0.0096399,0.009219,-0.023203,0.010146,-0.0029815,0.012518,0.0053063,0.008699,-0.00066425,0.0082201,0.0010525,0.010187,0.018162,0.018799,0.014324,-0.035481,0.0092979,0.0076294,0.025546,0.0048898,-0.00060872,0.012707,-0.056083,0.0089673,0.0057822,-0.0008222,0.010985,-0.040509,-0.016582,-0.022963,0.0049672,-0.010972,-0.044873,-0.0016395,0.0016993,-0.036761,0.0081615,-0.063667,-0.018658,0.038584,-0.00034988,0.0033971,0.010041,0.016197,0.012118,-0.0092574,0.0043308,-0.01034,0.014552,-0.088471,-0.051282,-0.069968,0.0033651,-0.050208,0.0026212,0.011828,-0.10609,0.016783,-0.076198,0.001943,0.017547,-0.048091,0.011471,0.014016,-0.084411,0.0096718,0.013537,-0.076382,0.0064069,-0.08415,0.019154,-0.097045,-0.0011492,-0.068922,0.011281,0.0017942,-0.030213,0.00079426,0.0086368,0.0049704,-0.094729,0.017482,-0.0022332,0.027264,0.014112,-0.012895,0.015197,0.018454,-0.044842,-0.073886,-0.034295,-0.0036684,0.0039512,-0.041026,0.013984,-0.088672,-0.06024,-0.0052878,-0.0012686,0.010217,-0.0023554,0.0066847,0.0028625,0.01858,0.014885,-0.077311,0.012571,-0.0030132,0.007604,0.015437,-0.056546,0.0076654,0.0028272,-0.066788,0.012895,-0.0082759,-0.0032033,-0.099528,0.0024167,0.02422,-0.002432,0.0033447,-0.052605,0.0074597,-0.011241,-0.0035366,-0.0050069,0.0075929,-0.062465,0.010358,-0.048747,0.017662,-0.055533,0.0057699,-0.10012,-0.0017644,0.01109,0.0068165,0.018899,-0.036501,-0.018305,-0.026053,-0.043524,0.0037968,-0.024885,0.013214,0.006466,-0.0074643,0.0077849,-0.026817,0.0015855,0.0038124,0.016007,-0.014011,0.025832,-0.00059997,0.016717,-0.00079429,0.00058015,-0.071139,0.0080022,-0.043608,0.017232,0.0115,-0.056007,0.0080629,0.0033713,-0.0051727,0.0031216,-0.0022953,-0.0050117,0.0088209,-0.09382,-0.073715,0.0044192,0.026385,0.010199,-0.081374,0.010896,0.01493,-0.055684,0.0023811,0.0045203,0.016386,0.011415,0.019325,0.0092138,0.018925,0.0010499,-0.084461,-0.058566,-0.0037134,0.001428,-0.040244,0.0011942,-0.069913,0.0048815,0.012286,-0.0082437,0.0024099,-0.028838,0.0016382,-0.075464,-0.0035332,-0.00036164,-0.068034,-0.0080221,-0.0078669,-0.07838,0.01357,0.00028873,-0.00013722,-0.043261,-0.00065172,0.011793,-0.0012472,-0.028552,0.0013637,0.013365,0.012812,0.0013546,0.017279,-0.023385,0.0089244,-0.045979,0.01109,0.00078585,0.0048914,0.0093088,-0.098809,0.004432,0.0036577,0.012489,-0.011106,0.0086317,0.021865,-0.030245,-0.0087341,0.02285,0.013279,0.0047379,-0.021481,0.0076034,-0.040237,0.028608,-0.029934,0.012928,0.00027678,-0.066584,-0.058688,-0.076212,-0.078201,0.010587,-0.10127,-0.05259,0.0016674,-0.034636,-0.0743,0.0086101,0.018433,-0.10163,0.011305,0.0076569,-0.043287,0.01336,0.019432,0.0089,0.002638,-0.0057058,0.014183,-2.7851e-06,0.017518,-0.048862,-0.10393,-0.11723,0.01268,0.0050878,-0.028634,0.013911,-0.0089543,0.012107,0.0062074,-0.015635,0.014954,0.012358,0.0053362,-0.088367,-0.062501,0.026896,-0.047288,0.008193,-0.025529,0.021024,-0.0019692,0.0058898,-0.0015095,-0.07903,0.015918,0.0095292,0.0029955,-0.088228,-0.078826,-0.024018,-0.075868,0.0061787,0.01529,0.010099,0.01973,-0.11829,0.011535,0.0062525,0.0042089,0.0023521,-0.032254,0.0032224,-0.021794,0.0080024,0.020107,0.0072669,0.0048299,-0.07062,0.0091556,-0.007115,0.01294,0.012897,0.012448,0.0088807,0.0076377,0.019429,0.0048286,-0.0030401,-0.039131,0.0080708,0.0083849,-0.029012,0.0044619,0.0065941,0.00065418,-0.06329,-0.032539,-0.01783,0.0076333,0.0075634,-0.0071669,-0.0010293,0.0047078,-0.051866,-0.00034663,0.00056229,-0.042344,0.031616,-0.045205,0.018957,0.013053,0.0068458,-0.088644,0.0010523,0.02068,-0.090833,-0.064209,-0.069442,-0.051157,-0.022537,0.0017897,0.011828,-0.011063,0.0092886,-0.04562,0.0046863,-0.035977,0.0042993,0.0020814,-0.12332,0.020403,0.008638,-0.069838,0.0045824,-0.10643,-0.085075,0.0088002,0.016792,0.014155,-0.024726,0.0056873,-0.034099,-0.097319,0.006022,-0.03721,-0.0063838,0.016319,-0.031165,0.025378,0.0088748,-0.025196,-0.087905,-0.085989,-0.0082636,0.0053956,0.0069921,-0.093702,-0.077194,-0.014066,-0.062047,0.0038677,0.011406,0.0029819,-0.025476,0.018607,-0.06031,0.012678,0.020632,0.0076694,-0.0044375
0.010432,-0.035404,-0.028921,0.006833,0.012793,0.012891,-0.11902,0.0027517,-0.044846,0.0054789,0.0020234,0.013662,-0.037219,-0.00085494,0.009745,0.0043599,-0.12472,0.022472,0.014207,-0.01075,0.021809,0.0075775,-0.078674,-0.082187,0.011519,0.0043313,-0.058199,0.0054353,0.0037306,-0.0020894,0.010749,-0.0020606,0.019585,0.010793,0.028127,0.0055698,-0.079338,0.011705,0.0088913,-0.089358,0.017914,-0.054952,-0.0812,-0.063204,0.0015638,0.0031861,0.015709,0.011252,-0.0043156,0.0097483,-0.0018835,-0.0050948,-0.044812,0.0077072,-0.027554,-0.01748,0.013001,0.011558,0.0071005,0.0011085,-0.13306,-0.025686,0.011489,-0.0044266,0.0055305,0.0020688,-0.062064,0.015101,-0.034965,0.017175,-0.0072819,0.0078993,-0.026799,0.010913,0.014802,0.0080686,0.00089102,0.0089567,-0.061298,-0.00061589,-0.057,-0.011089,0.0091906,-0.050358,0.0032034,-0.082414,-0.033624,-0.04527,0.018118,0.005219,0.0093953,0.0036114,-0.054233,0.0049902,0.0015038,-0.056236,0.0036506,-0.042865,-0.058561,0.0094196,-0.024549,-0.069931,0.010584,0.015838,-0.088273,-0.012321,0.0056142,0.032335,-0.0036794,-0.0064762,-0.10538,-0.023951,0.0051583,0.006029,0.0011082,-0.063998,0.010596,0.018788,0.011503,0.0094229,-0.044144,0.0098039,0.008904,-0.090516,0.01478,0.01944,-0.0045792,-0.039668,-0.0088953,-0.03106,0.00093161,0.018006,-0.024398,0.0043561,-0.023602,0.0033805,0.0073188,-0.0017837,-0.074692,0.0091501,-0.0034265,0.0038465,-0.033023,-0.032537,0.030427,-0.002011,-0.046465,-0.071703,-0.064946,0.010585,-0.015609,0.01218,0.012841,-0.026942,-0.04776,-0.028106,-0.034504,0.021162,0.013773,-0.10215,-0.0056377,-0.058712,-0.001183,0.0033264,0.012726,-0.015262,0.014895,0.0062662,0.0068422,0.015467,-0.025369,0.0063564,0.0072703,0.010903,-0.062478,-0.048708,0.0090783,-0.023399,0.0061936,0.011577,-0.028774,0.0031881,0.010671,-0.01872,9.4768e-05,0.0068182,-0.027123,0.0082651,-0.029093,0.011181,-0.036806,-0.037711,9.7152e-05,-0.092805,-0.0058041,0.021113,-0.032568,0.0053275,-0.050601,0.015098,0.011823,-0.0027484,-0.020709,-0.058214,-0.064215,0.0014142,0.010075,-0.0011376,-0.0019459,0.0046122,0.00029658,-0.079597,0.012008,0.0034654,0.0077551,-0.0035857,-0.050984,-0.035106,0.0047983,0.021607,0.0022962,-0.040458,-0.024037,0.0092153,-0.027184,-0.13332,-0.052389,0.0069378,0.01147,0.02296,0.010816,0.011969,-0.015094,0.0037554,0.012651,-0.017164,-0.012138,-0.0049006,0.011428,-0.022581,0.008155,0.0028173,0.0054573,-0.018741,-0.076641,-0.021848,0.0084267,0.013625,0.0063965,-0.0088963,-0.01905,-0.025027,0.0174,-0.0078805,0.010332,-0.026542,0.0049761,0.0086838,0.0095704,0.0035902,-0.057057,-0.025698,-0.043393,0.0021843,0.016753,-0.053009,0.026903,-0.10362,0.022765,0.012221,-0.0076958,0.0086799,0.0041411,0.011566,-0.0091915,-0.041637,0.0022673,-0.0034608,0.0070369,-0.06697,-0.087,-0.038434,-0.010502,0.0096637,-0.074658,-0.019406,0.011043,0.012525,-0.021718,-0.0018701,-0.027218,0.0024281,0.0020888,0.0085873,0.010792,-0.081922,-0.021468,0.015906,-0.003365,-0.041119,-0.029545,0.007273,0.0099529,0.016729,0.010893,0.0045876,-0.038862,0.0064894,-0.048924,-0.058512,0.016449,0.0051195,0.011732,0.0001993,0.013439,-0.043769,0.0034651,-0.014354,0.014182,-0.10418,0.0086861,-0.0028872,0.014525,-0.086824,0.0016794,-0.028167,0.0044931,-0.0063766,-0.017183,-0.034943,0.025777,-0.029735,0.016243,0.012862,-0.074058,0.0050446,0.029403,-0.029066,-0.0021707,0.0076021,0.0080921,0.00045954,0.0087469,0.0301,-0.0012301,-0.075836,0.019353,0.021012,0.0084773,0.013712,0.0050299,0.0078644,0.0015883,0.0128,0.017099,-0.017752,-0.07363,0.0054061,0.0091257,0.0064871,-0.013476,0.0055475,0.0045021,-0.033006,0.014851,-0.04842,0.014576,-0.042226,-0.0030111,0.0037974,-0.073606,0.0041493,-0.025415,0.011876,0.01499,0.018971,-0.066515,0.011856,0.022109,0.0063595,-0.049622,0.012477,-0.034486,-0.037885,0.0095108,0.016744,-0.057921,-0.0097663,-0.024784,-0.00086806,-0.087013,-0.029095,-0.011514,0.0059359,-0.075535,-0.0068011,-0.001452,0.013731,0.00072931,0.015706,-0.078659,-0.049579,-0.10476,-0.0060002,0.014326,-0.017752,0.012132,0.00070432,-0.0053372,0.016047,0.013089,0.012983,-0.0017338,0.012159,0.015288,-0.039206,-0.021189,-0.086643,-0.097852,-0.0064572,0.0013455,0.0092961,0.0007136,-0.040794,0.0022466,-0.0067886,-0.06901,0.014816,-0.047496,0.0060172,0.0012071,-0.0278,0.0075755,0.0067062,-0.039584,-0.0086988,-0.022882,-0.0024684,-0.024946,-0.12426,-0.077756,-0.052146,0.012474,0.010811,0.0085423,0.019008,0.006578,0.0078225,0.0054251,-0.026401,-0.0031942,0.010275,-0.024873,0.01543,0.0058982,0.0052869,-0.011765,-0.022365,0.002786,0.0013862,0.0077534,0.0020646,0.0077117,-0.0019238,0.0044821,0.008731,-0.00010021,-0.0036016,-0.023456,0.013393,-0.074651,0.0098947,0.011192,0.012618,-0.0019636,-0.044539,-0.012647,-0.0042733,-0.0016164,-0.058596,0.012825,0.0085468,0.012319,0.0050726,0.01405,0.0017084,0.010722,-0.053417,-0.029313,0.0021969,0.014049,-0.014682,-0.020754,0.0050588,-0.061069,0.0020925,0.0060461,-0.051549,-0.030236,-0.029676,0.01132,-0.0071429,0.0015084,-0.045113,-0.071753,0.0061118,-0.010792,0.025022,0.0066712,0.0091637,0.027061,-0.0067426,-0.046447,-0.081596,-0.012262,-0.0069378,0.010627,0.0061677,-0.050399,-0.015039,-0.09535,-0.0061164,-0.021296,0.010221,-0.10205,0.012795,0.0076764,-0.092249,0.0126,-0.00081077,-0.034313,0.0026239,0.0090622,-0.035574,-0.038603,0.0048715,0.010121,0.0073835,0.0037332,0.013886,0.0078971,0.0036669,0.01377,0.0067516,0.0049979,-0.00090923,-0.060332,-0.020875,0.008683,-0.068747,0.0068796,0.00022568,-0.03552,-0.0045394,0.016027,0.0017606,0.013088,0.0053111,0.0020624,-0.0053075,-0.053285,0.0095211,0.0056416,-0.039464,0.020498,0.022074,-0.046852,-0.036761,0.0056276,0.00080789,0.00063383,0.014233,0.014627,-0.045523,0.0097679,0.0084364,-0.088984,0.015947,-0.037457,0.0084062,0.0012124,0.00072674,-0.048648,0.0064887,0.01238,-0.097714,-6.8552e-05,-0.010926,-0.041362,0.015331,0.0038533,-0.040409,0.010209,-0.021672,0.0029356,-0.080681,0.0068908,0.015089,0.0093769,0.0081637,0.019319,0.012317,0.012436,-0.039747,-0.021017,-0.0068173,-0.044731,0.0056529,0.014209,-0.042679,0.016182,0.0075448,-0.043965,-0.029687,0.006637,0.0012263,0.0035918,-0.047442,-0.039988,-0.042674,0.0035018,-0.047062,-0.04178,0.0038471,-0.061671,0.016831,0.0086221,-0.011184,-0.090435,-0.050814,0.0085737,0.0054485,-0.018465,0.0069675,-0.00012184,0.0094939,-0.0055599,0.010938,-0.069561,-0.063869,0.0089874,0.0061869,0.013675,-0.06939,-0.051,-0.028238,0.021658,0.017526,-0.00868,-0.018519,-0.01754,0.003034,-0.0040941,-0.12989,0.0079708,0.014291,0.0050421,-0.0030543,-0.092905,0.015148,0.016686,-0.096087,0.0045119,0.011634,-0.025955,-0.011621,-0.015592,-0.077247,-0.05391,0.0082601,0.010168,-0.044499,-0.020877,0.032572,0.013396,0.0085889,0.0075402,-0.04197,0.0092966,0.018414,0.008103,-0.05783,-0.011403,-0.014275,0.0022919,-0.051721,0.0043227,0.00837,-0.029793,0.010772,-0.019555,0.013439,-0.117,-0.075638,-0.059518,0.0095097,0.0074307,0.005164,-0.0017742,-0.078943,0.011472,-0.029285,0.0040871,0.015323,-0.023864,0.0069586,-0.05037,-0.038378,0.011749,-0.042672,-0.0081639,0.0034046,0.0035792,-0.045212,0.0089456,-0.060351,-0.028343,0.013127,-0.014757,-0.010916,-0.021194,0.0084054,-0.0001924,0.005364,-0.021892,0.0099903,-0.067139,0.0097178,0.0023127,0.0057468,0.0068314,-0.11549,0.0051197,-0.064137,-0.044611,-0.010897,0.0099003,-0.015003,-0.055186,0.010317,0.016377,-0.066369,0.01199,0.019032,0.0073189,0.009593,-0.061961,0.022368,-0.013494,0.0085574,-0.0045927,0.021567,-0.0023025,-0.0015075,0.0038294,0.015598,-7.8744e-06,0.0052505,0.0085936,0.021976,-0.031799,-0.027212,0.0082867,0.014396,0.0063461,-0.0070558,0.002476,0.0045114,-0.04485,-0.0086991,0.0038158,-0.0079113,0.0019734,0.0082661,-0.097347,-0.0012342,0.0087669,0.0095854,0.0010884,0.017784,0.0081159,0.0042787,0.012903,-0.035081,-0.022294,0.0032558,0.012947,0.011394,-0.076574,0.0056223,0.012007,-0.010492,0.017211,0.013797,0.0057505,0.00095555,0.024211,0.002672,0.0081116,-0.011458,0.010331,0.0094152,-0.011387,0.010436,-0.10334,0.0054131,0.014132,-0.033994,0.014828,0.0061401,-0.028791,0.0087205,-0.03526,-0.059718,0.017264,0.0092686,0.0035685,-0.0017882,0.010262,-0.036607,0.0042571,-0.0073932,0.0098041,-0.09314,0.0056202,-0.016514,0.016562,-0.11364,-0.065594,0.01667,-0.057171,0.0094324,0.014795,0.019429,-0.00052905,0.020664,-0.057699,-0.021865,0.0022812,0.0019161,-0.028152,-0.036369,0.016753,0.018031,0.014254,-0.021674,0.01702,0.0017383,0.0078414,0.0043245,-0.13246,0.016054,0.015603,0.012445,0.0087952,-0.040095,-0.082766,0.02289,0.011218,0.016152,0.0010814,0.015141,-0.046749,-0.08625,-0.062308,0.0078175,-0.057728,-0.007187,0.0012628,-0.032626,-0.067421,0.0029233,-0.010578,0.012609,-0.027024,-0.041714,0.0063088,0.0050528,-0.024885,-0.014713,-0.023421,-0.027099,-0.027846,-0.042551,-0.0050884,0.0067022,-0.027152,0.0054066,0.011326,0.0013385,0.013771,-0.019237,0.0049856,-0.088875,-0.06637,0.012597,-0.060748,-0.014863,0.0085044,0.0076109,0.0098209,0.010774,-0.0049595,-0.058401,-0.0079824,0.0048813,0.0066706,0.0073271,-0.028664,-0.0019075,-0.011664,0.0098887,-0.093126,0.0034694,0.029687,0.0020324,-0.0087624,-0.0044239,0.0046187,0.010487,-0.11408,0.025142,-0.0035411,-0.02173,0.0017762,-0.086932,0.0029085,-0.0018818,-0.064909,-0.05076,-0.041852,-0.065101,0.00042909,-0.0056105,-0.017669,0.0067841,0.016216,-0.031653,6.4338e-05,0.01157,-0.022581,0.0017914,0.0047317,0.017342,0.003408,0.018765,-0.028068,-0.01869,-0.013402,0.014288,0.011124,-0.050318,0.011175,0.0046424,-0.0098319,-0.03586,-0.0010151,0.0060919,0.0083303,0.0021559,0.0074979,-0.010303,0.025536,0.0080434,0.019752,-0.024859,0.0059219,-0.00021119,0.013421,0.0011397,-0.022701,0.0091517,0.026018,0.012684,0.0049542,-0.0090049,0.012785,0.0067759,-0.093775,-0.0056019,0.01759,-0.0078283,-0.070412,-0.043732,0.0029695,-0.019454,-0.094058,0.002733,-0.053103,0.0095884,0.010416,-0.0034962,-0.0045454,-0.014081,0.0074698,-0.0023497,0.013002,-0.0038439,-0.0057555,0.012462,-0.019564,0.025785,-0.10869,0.0094598,0.019336,0.0059344,0.0040368,0.010881,0.01189,0.0061157,0.01754,0.0031449,0.0085909,-0.13425,0.013622,-0.045421,0.0058347,-0.10431,0.0037211,-0.00014856,-0.0088297,0.0077578,0.013499,-0.0011554,-0.042292,0.010024,-0.0037161,0.02057,-0.079123,0.0018428,0.0039187,0.012061,-0.00089955,-0.044731,-0.08832,0.012683,0.018827,-0.04275,-0.045313,-0.043866,-0.028782,-0.018244,-0.0068979,-0.023062,-0.0034023,0.020345,0.0042789,-0.045091,0.012005,-0.12814,0.011569,0.014339,0.010925,-0.10331,0.011686,-0.00047398,0.016039,0.0033444,-0.054708,0.0011267,-0.065013,-0.014184,0.02818,0.025728,0.0065634,-0.04341,0.00027052,0.012707,-0.0024397,0.013322,0.0072323,-0.047282,0.004244,0.0058178,-0.092748,0.014857,0.014114,-0.018278,0.0085402,0.018778,-0.052653,0.0034903,0.0074079,0.022434,0.018855,-0.0029619,0.0061371,-0.044441,0.0056316,-0.048546,0.0013172,-0.025964,-0.068331,0.0071765,0.011025,0.00071652,-0.079337,0.0045375,-0.0013084,-0.074542,0.00023498,-0.060852,-0.023599,-0.04637,0.012984,0.01223,-0.005989,-0.00073938,0.00056323,0.0034997,-0.06295,-0.109,-0.092382,0.0087197,0.0047928,0.022796,-0.046575,0.005364,0.0057846,-0.073495,0.010551,0.00070445,-0.0025707,0.00094437,-0.037887,0.0086305,0.027417,-0.019069,0.016228,-0.13908,2.4688e-05,-0.012442,0.0066282,0.0038296,-0.011579,0.012866,-0.081085,0.030767,0.0063426,-0.03104,0.0067439,-0.042587,-0.082631,-0.0011178,-0.020772,-0.0015232,-0.098476,0.0091573,0.0062832,0.0095467,-0.062265,0.0115,-0.090729,-0.030583,0.0091366,0.004247,0.0022977,0.0052606,-0.0039014,-0.014539,0.0015488,0.01071,-0.051451,0.0039648,-0.0013018,-0.0040158,0.0087886,0.0125,0.020937,-0.080172,0.0075211,0.002353,0.0068158,0.002129,-0.03199,0.0077408,0.012962,0.0098009,0.0021242,0.012404,0.0039304,-0.0029222,-0.048947,-0.0069833,0.023304,0.0068069,0.011838,0.0024498,0.012021,-0.060531,0.013618,0.021481,0.014885,-0.10512,-0.029213,0.0087671,-0.009846,0.012101,0.0089701,-0.1051
-0.02447,-0.0092512,-0.076007,0.0050911,0.0091769,0.0091908,-0.0048291,0.01944,-0.0092753,0.016766,-0.010344,-0.09563,0.0018419,-0.0092547,-0.013746,0.0076736,-0.0038405,0.016464,0.013384,-0.016055,0.017486,0.0327,0.0062613,-0.019063,-0.046422,0.0083433,-0.0066356,0.0016065,0.011577,-0.087507,0.0073813,0.0071512,-0.0075787,0.0046019,0.015435,-0.050949,-0.00080528,0.0088115,0.0097167,-0.019023,-0.068651,-0.0025962,-0.034379,0.0053754,0.012885,-0.031912,0.0056307,-0.038457,0.0038951,0.018896,-0.02592,-0.02864,0.003472,0.02214,-0.0062077,-0.078077,0.015396,0.0025769,0.020732,-0.00080235,0.0055471,-0.0027376,0.016625,0.0016734,0.015654,-0.065435,0.0066402,0.012052,-0.0053893,0.010671,-0.080684,0.0038248,-0.038739,0.009667,-0.067489,-0.038241,-0.033492,0.014761,-0.025693,0.011987,0.0097186,0.00015801,-0.071809,-0.0065507,-0.0052185,-0.082444,0.0077781,0.0056385,0.0032538,0.0063664,-0.095056,-0.01811,0.0054697,0.013024,0.013191,0.011115,0.01814,0.0009056,-0.038499,0.012901,0.0059702,-0.087623,0.01521,0.012657,-0.021246,0.013661,0.0069318,0.0091605,-0.0031049,-0.0082803,0.0059932,-0.0021151,-0.036221,0.023408,-0.033089,0.0033529,0.020023,0.0039196,0.0083587,0.0012317,0.0069809,0.017314,0.013844,0.0032309,-0.052256,0.0060879,-0.013585,0.0016365,-0.0040159,0.0037343,0.016591,0.013908,-0.021543,-0.0046673,0.016224,0.013435,0.013703,-0.019013,0.012629,0.012087,-0.041684,0.004207,-0.001781,0.0060092,-0.080796,-0.020433,-0.074628,-0.0012732,-0.0051516,-0.0077925,0.0079759,0.014382,0.0089161,-0.063794,-0.0068668,-0.0040088,-0.0070545,-0.016166,-0.035875,0.00799,-0.072407,-0.0019058,0.010833,0.011759,0.0086004,-0.029648,-0.046719,0.012149,-0.083093,0.020336,-0.019971,0.0008948,0.014626,0.01798,0.0072107,-0.055271,0.01013,-0.028712,0.013384,0.01166,0.0011742,0.017326,-0.046179,-0.062759,-0.049073,0.02015,0.011272,0.019888,0.0044267,0.0060607,0.012397,0.015261,0.00833,-0.0048028,-0.11146,-0.0083456,-0.019418,0.0080262,-0.024211,0.022863,0.015016,-0.026341,-0.00072541,-0.015499,-8.1359e-05,0.013332,-0.1046,-0.0051969,-0.025537,0.018196,-0.04946,0.0028588,0.010776,-0.045712,0.017898,-0.032516,0.0084851,-0.021509,0.025537,0.0035636,-0.050531,-0.028128,-0.0043136,0.037903,-0.0048143,0.0093521,0.011555,0.012217,-0.032478,0.023514,0.0062168,-0.1097,-0.015325,-0.12531,-0.11835,-0.0018125,0.0013974,0.0028734,-0.10302,-0.053907,-0.0019652,0.0050606,-0.078141,-0.0024959,-0.091814,0.0037798,0.015535,0.0088953,0.0027599,-0.10193,0.0066055,-0.031599,0.01712,0.0022491,0.017413,0.00021293,-0.0068006,0.0091033,0.011246,-0.070562,0.0017964,-0.0037086,0.0070868,-0.044797,0.011712,-0.073609,0.0057378,0.0072224,-0.02907,0.0017627,-0.021357,-0.0064673,-0.072049,0.0034041,0.0081893,0.0014241,0.026409,-0.00046244,-0.079566,0.01471,0.0068501,-0.022149,-0.085716,0.00096102,-0.05803,-0.0065824,-0.0032905,0.017181,0.0001391,-0.12949,0.01001,0.021021,-0.036177,-0.0032004,0.018529,0.014794,0.0071489,0.010818,-0.023925,-0.013968,0.0066119,0.0015078,0.0047572,0.012285,0.0079002,-0.0078246,-0.045422,0.013915,-0.051423,0.0070987,0.018015,-0.028993,0.014482,-0.12439,0.024377,-0.00038745,0.013384,0.0033386,0.0027014,-0.038624,0.0099256,-0.052484,0.015767,0.0010174,-0.0098313,-0.03353,-0.0067904,-8.5258e-05,-0.030631,-0.02716,0.012638,0.0010452,-0.061804,0.014361,-0.00086091,-0.048222,0.039821,0.025662,0.0092389,-0.04886,0.012374,-0.091365,-0.055372,0.017493,-0.072434,-8.6926e-05,-0.013533,0.020625,0.017951,-0.028251,-0.044313,0.017273,0.026076,0.018095,0.019029,0.029305,0.0020671,0.013547,0.01666,0.0011408,-0.00058477,0.0013498,0.0089761,-0.053165,-0.0026028,0.024679,-0.0031582,-0.0029935,0.0089224,-0.010623,0.0038392,0.014987,0.0041726,0.0098028,0.0040175,0.018057,0.0019811,0.0025735,0.011906,-0.09632,0.00038674,0.012462,0.015097,-0.099685,0.025171,0.010581,-0.13156,-0.018993,-0.057939,-0.0013415,-0.018519,0.0026247,-0.087426,0.011279,0.0021926,0.0204,-0.065886,-0.093617,-0.049022,0.01177,-0.0050227,0.0031738,-0.086882,0.025646,0.016706,0.0087349,-0.046735,-0.069045,-0.0027637,0.024339,0.0074326,0.003222,-0.0067865,0.024958,0.012256,-0.099595,0.0023052,-0.01141,0.009291,0.0035656,-0.11502,0.021958,-0.00093284,0.0017028,0.013134,-0.0029476,-0.00063932,-0.024953,0.018101,0.00010916,-0.042946,0.007735,0.014747,-0.046549,0.0037998,0.014513,-0.01045,-0.041277,-0.0062237,0.0015519,-0.099821,-0.0044557,0.019658,0.0072087,0.0047759,0.015384,-0.010571,0.022176,0.023284,0.0096223,0.019019,-0.0011165,-0.013762,0.0050344,-0.0014706,-0.05197,-0.050852,0.0053358,-0.083436,-0.019466,-0.004373,-0.013734,0.0041373,0.0041814,-0.00013139,-0.11016,0.013413,-0.10935,0.007488,0.0071955,0.0076259,0.011149,0.010501,-0.068817,-0.010504,0.0073717,-0.039108,0.0034197,0.0075606,0.0015956,0.0015444,0.023046,0.0042544,-0.10959,0.0039951,0.0091416,0.018605,-0.035365,0.018598,-0.090309,0.022963,-0.042269,0.011144,0.013003,0.011312,0.02126,0.00814,-0.02389,-0.0042404,-0.0071409,0.02028,0.012842,0.0081212,-0.093297,-0.054342,-0.074728,-0.069406,0.0091111,-0.011342,0.0014545,0.018385,-0.038571,-0.019503,0.0079145,0.018129,-0.058814,-0.069223,-0.00057928,0.0040216,-0.019856,0.010464,0.01436,-0.051777,0.012855,0.011371,-0.077746,-0.07467,0.00066838,0.0084357,-0.0097738,-0.096892,0.007891,-0.038012,-0.0026718,-0.11372,-0.068168,0.0008911,-0.10006,0.014891,0.015212,0.00053633,0.021123,-0.071679,-0.0048644,0.0062635,0.0069812,-0.059139,-0.0037427,-0.018628,0.00052279,-0.092896,-0.049601,0.0069102,0.0042569,0.023968,-0.064418,-0.092384,0.017023,0.032554,-0.063634,0.0046601,0.0026345,0.0047055,-0.054845,-0.022677,0.017569,-0.089499,-0.097063,-0.029175,-0.082543,-0.04309,0.011862,0.014192,-0.00076568,0.01313,0.013225,-0.06281,0.012949,-0.034589,-0.07145,0.017438,0.013433,-0.0013038,-0.07283,-0.0055988,0.0097263,-0.017961,0.011656,-0.0058493,-0.092736,0.016111,-0.064682,0.011735,-0.066168,-0.0019821,0.0039075,-0.058985,0.0069363,0.013682,0.022589,-0.084657,0.013469,0.0014485,0.000416,-0.044431,-0.031436,-0.00059427,0.010613,0.015518,-0.11744,0.014693,0.0051449,0.0099194,-0.076735,-0.0032652,-0.02697,0.026401,-0.077974,-0.045005,-0.076992,-0.011981,0.0019683,0.024223,-0.03486,-0.019102,-0.053099,0.01092,-0.013011,0.0030097,-0.010728,0.01941,0.028662,-0.0012483,0.0095132,-0.00056137,0.019146,0.015031,0.011134,-0.014432,-0.084429,-0.0062596,-0.0016286,-0.0722,-0.0026881,0.0076029,-0.014924,0.012831,0.016628,-0.00057191,-0.070961,-0.06328,0.025158,-0.00089037,0.0084356,0.0023928,0.025022,-0.001706,0.013294,0.0039703,0.019666,0.018932,0.0085475,0.0047213,-0.0040939,-0.0034641,0.0089124,0.012808,0.0083937,-0.0024087,0.0073431,0.0037168,-0.029591,-0.021058,0.012898,-0.053937,0.0057854,0.0058176,-0.038153,0.017187,0.018133,0.013695,0.013749,-0.039721,0.017548,0.010292,-0.059607,0.016201,0.00089155,-0.057037,0.011211,0.0020091,-0.062668,-0.013198,-0.051512,-0.09282,0.0098067,-0.087081,5.8138e-05,0.016016,-0.00023871,0.017728,0.013912,0.0071866,0.01237,0.0032386,-0.038289,-0.0081317,-0.080993,0.016149,-0.0035027,-0.060543,-0.029184,0.013917,-0.003186,-0.051367,-0.019394,-0.089821,-0.047805,-0.073046,-0.0080002,0.014138,0.023379,0.023466,-0.095113,-0.019231,-0.1038,-0.0021432,-0.060629,-0.027681,0.014002,-0.0013548,-0.00034321,-0.06617,-0.082984,0.0043588,-0.0064116,0.018566,-0.10459,0.0092222,-0.0014267,0.016906,-6.3129e-05,-0.036501,0.010323,-0.043679,0.020688,-0.041111,0.00014654,-0.040063,-0.055003,0.0089791,0.0042082,-0.049132,-0.071046,0.027631,0.019705,-0.071868,0.0031147,-0.026002,-0.023964,0.0013489,-0.015741,0.0029612,0.029288,0.0076843,-0.013305,-0.064059,0.010556,-0.0074762,0.001037,0.024755,-0.0085001,-0.034374,0.0047394,0.0078131,-0.12404,0.015439,-0.09351,-0.0696,-0.078691,0.014261,-0.013405,0.021358,-0.038814,-0.021041,0.011269,0.0088844,0.010959,0.005193,-0.015141,0.020519,-0.068603,0.0063467,-0.0057971,0.0092363,0.0016102,-0.00096676,0.0042864,0.014814,-0.028877,0.021574,0.0016041,-0.0055568,0.013097,0.013895,0.022117,-0.035186,0.0016094,0.010963,-0.047139,0.0096191,0.014653,-0.097988,0.013255,-0.026136,-0.032391,-0.0089444,0.02354,-0.076994,-0.064917,0.011954,-0.097745,0.005524,-0.012728,-0.060157,-0.00047752,0.018823,-0.0028025,0.00057559,0.014272,-0.035036,0.016905,-0.074873,-0.056256,-0.0064612,0.0097025,-0.06829,0.012292,-0.079895,0.011491,-0.032333,0.0041195,0.013863,0.010937,0.013716,-0.0074787,0.01218,0.0037099,0.0072685,0.017833,0.0092998,-0.025023,0.014072,-0.024328,0.0075523,0.0059957,-0.041954,0.0085915,-0.0005118,-0.066861,0.0051183,0.017841,-0.07895,-0.00086103,0.0029176,0.014017,-0.0090818,-0.0058739,0.022885,-0.064927,0.006296,0.01763,-0.025356,0.018263,-0.00049441,-0.0097835,-0.051553,0.015242,0.0067439,-0.019782,0.0022937,0.0062358,-0.01123,-0.018392,-0.11188,-0.07329,-0.0035715,-0.087072,-0.0056604,-0.086082,0.0039554,0.010773,-0.0053032,-0.0024698,0.0054905,0.010477,-0.072484,0.0037306,0.019406,0.010412,-0.080732,0.02597,-0.022309,-0.020525,0.0048453,0.021864,0.0079508,-0.024287,-0.067135,-0.049631,-0.0093888,-0.023715,-0.020281,0.0144,0.0067815,-0.00023337,0.012752,-0.030263,0.0097437,-0.10373,0.0064549,-0.084461,-0.080189,0.024565,-0.060234,0.02258,0.01334,-0.065746,-0.035776,0.0039074,-0.077088,-0.031728,-0.034341,-0.054491,-0.0004161,0.012357,-0.025482,-0.0014443,-0.052547,0.0042153,0.0073298,0.022123,-0.016792,0.020068,0.0058841,0.0017547,0.00037464,0.007277,-3.1295e-05,-0.0033607,0.005993,-0.0039359,0.011923,0.007834,0.0058041,-0.070832,-0.022857,-0.051704,0.01245,0.0081894,-0.0070211,0.00074658,0.019718,0.0090869,-0.037423,-0.0031432,0.01308,-0.037142,0.00081782,0.020599,0.0044876,-0.0038705,0.013089,0.002024,0.010159,-0.036163,0.0045403,-0.041054,-0.07977,0.0055787,0.0067693,-0.0039018,-0.032379,0.0040381,0.009373,0.016888,-0.069877,0.004465,-0.081304,0.0075441,-0.084235,-0.0020603,-0.071367,-0.0073715,-0.10906,0.0045015,0.02091,-0.11356,-0.079269,-0.056135,-0.096381,0.0071692,-0.018267,-0.064338,-0.11736,0.0087906,0.01513,-0.00057002,-0.00040636,0.016893,0.0047011,0.004272,0.015361,-0.00074177,0.014494,-0.028096,-0.014961,0.0072168,0.013578,0.012131,-0.04647,0.014793,0.0089968,0.013885,-0.060126,0.0003747,-0.010782,0.011398,-0.021565,0.013179,0.027429,0.026468,-0.047127,0.0090621,0.012417,0.0058654,-0.017429,-0.012262,0.0029682,0.0074956,-0.0084261,0.0098057,-0.10115,0.0081223,-0.0041935,0.018932,0.012761,-0.037909,0.012328,0.0047968,0.0068672,-0.00014162,0.026751,0.0010487,0.0048814,0.0029926,0.013669,-0.00032535,-0.0071031,0.0071953,-0.00077049,-0.094245,0.0125,-0.027653,0.0093325,0.0066829,-0.0039757,0.006976,0.021204,-0.0015795,0.016292,0.022586,-0.11894,-0.099018,-0.058543,0.012247,0.010351,0.01067,0.0039195,0.012093,-0.10663,-0.062891,0.0096699,0.030937,0.0081901,0.010789,-0.098137,-0.00054648,-0.068283,-0.0094744,0.0030329,0.0068343,0.0028964,0.013755,0.010185,-0.011488,-0.054087,0.0035578,0.0018204,0.01583,0.0057902,0.016092,-0.020769,-0.073317,0.0071313,0.0133,-0.026087,0.007709,0.011044,0.0050301,0.0067295,0.0075655,-0.0010974,0.010508,0.00028293,-0.00071602,0.0016527,-0.016751,-0.064611,0.0036319,0.021586,-0.057837,0.019909,-0.0016882,-0.0043426,-0.078581,-0.036138,-0.035799,0.01107,0.0068789,0.049385,-0.041259,0.017399,0.011025,0.01325,-0.040167,-0.0084102,-0.012038,0.0017501,0.020225,0.017513,-0.00057533,0.0043652,-0.0085226,-0.020443,-0.003848,-0.00030142,-0.073774,-0.018659,-0.056793,-0.085306,0.019665,-0.042832,-0.10664,-0.055848,0.027486,-0.062762,0.003767,-0.049024,-0.0019047,0.0022535,0.011678,0.00089682,-0.027352,0.025785,-0.0091896,-0.083667,0.031223,0.012137,0.00203,0.018468,-0.037178,0.0025994,0.0024525,-0.0071485,-0.020041,0.0076789,-0.021325,0.010615,0.016862,0.006094,-0.078863,0.0015979,-0.065006,0.013036,0.0078059,0.0065222,-0.043247,-0.025763,-0.030287,-0.037354,-0.012812,0.020715,-0.0068872,0.0092725,-0.056302,0.01059,0.016153,0.014128,-8.1105e-05
0.0083936,-0.072095,-0.056434,-0.074828,0.0056385,0.0072102,0.024905,0.022116,0.026667,-0.087116,-0.055331,-0.039575,-0.045229,-0.013987,0.0085467,0.0033518,0.0067899,0.014083,0.017112,-0.01318,0.011036,0.010031,-0.088363,-0.017551,-0.061006,0.0053423,-0.062998,-0.062122,0.019522,-0.057665,0.0080939,-0.047673,0.0055184,0.017736,0.014531,0.011636,-0.047098,0.010649,0.013094,0.0071208,-0.013358,-0.044663,0.002633,-0.0020821,-0.043392,-0.040186,0.0186,0.0038958,-0.089762,0.01194,0.0099475,0.0013378,0.010011,0.0075865,0.020397,0.0027934,0.012272,-0.096777,0.0032852,-0.032354,-0.044778,0.0085154,0.022558,0.0061293,0.010717,0.015003,0.0084027,0.0068168,0.00058608,0.010814,-0.0060406,-0.018486,-0.024638,0.002952,-0.032593,-0.04342,-0.054946,0.03037,0.0016283,-0.058487,-0.069844,0.010251,-0.019386,-0.053344,0.0090371,-0.014252,-0.030008,0.017948,0.02159,-0.0073066,-0.098434,0.0012371,0.00011968,0.00033135,0.0045874,-0.015247,0.012114,0.0021446,-0.012909,-0.051589,0.0029863,0.0031268,0.015225,-0.0051104,-0.0005348,0.018865,0.013876,0.0026388,-0.067895,0.00074264,-0.021208,0.016398,-0.035798,0.012036,-0.077788,-0.022866,0.01002,0.0088226,-0.0032118,0.017791,-0.069083,0.0081049,0.016216,-0.057877,-0.057853,-0.00042496,-0.019173,-0.002439,-0.04633,-0.032923,0.0036518,0.02242,0.0052994,-0.0015728,-0.027929,-0.038813,-0.017079,0.0038144,0.00023495,0.015416,0.0020582,-0.086226,-0.042552,0.011442,0.0028162,-0.0026973,-0.00037424,-0.030122,-0.027315,-0.056723,-0.011838,0.0095893,0.014312,-0.060201,-0.0034908,0.0064127,0.0096011,-0.010142,-0.067774,0.0072863,-0.036911,-0.0056242,0.017667,0.0083907,-0.0093068,0.0087677,-0.015696,0.010414,-0.048071,0.011194,-0.00046337,0.0067092,0.0041242,0.023767,0.0058,0.0043366,0.016939,0.012648,-0.031281,0.0098774,0.0034662,0.0098392,0.010637,-0.08411,-0.0016235,0.0054862,0.0039297,0.011869,0.0054509,0.010371,-0.033428,0.0079653,-0.040678,0.0053585,-0.0029498,0.0088067,-0.0075116,0.010723,-0.044379,0.014227,0.01595,-0.0059793,-0.010154,-0.031712,-0.014106,0.0060552,0.0035243,0.004515,-0.073858,0.014811,-0.047146,0.0019522,0.024062,0.0066803,0.0054334,0.012632,-0.058574,0.0040885,0.0097801,0.0068803,-0.0017183,0.038739,0.00735,-0.014557,-0.0037807,-0.01984,-0.035807,0.014153,-0.010424,-0.00030305,0.0089033,-0.075154,-0.034103,-0.075282,-0.061327,-0.01645,-0.0025571,-0.02468,-0.0028007,-0.082373,-0.086583,0.011758,-0.0079019,9.1198e-05,-0.064669,-0.031939,0.0081813,0.0003329,-0.039333,-0.10725,-0.022186,-0.037405,0.019662,0.0060888,0.0051786,0.0099546,-0.0059043,0.01195,-0.0033445,0.0038961,0.012558,-0.040009,0.00017809,-0.05482,0.01814,0.0052366,0.02616,-0.0026357,0.012074,0.0049661,0.0026826,-0.026683,-0.031232,0.013008,-0.063397,-0.019521,0.0062281,0.0035975,-0.069267,0.0030692,-0.07351,-0.028918,0.011606,-0.0036341,0.0060329,-0.011887,0.02082,0.017806,-0.0062436,0.0050246,-0.049105,0.0030682,0.00034511,0.016284,0.01812,-0.022945,-0.039044,0.0011898,-0.060287,-0.0074038,-0.0041685,0.005151,-0.090162,0.013223,-0.00035869,-0.089109,-0.02756,0.012269,-0.077915,0.0029084,0.010522,-0.047077,0.0019314,-0.067739,0.0028719,-0.054844,0.013785,-0.020264,0.0037051,-0.027264,-0.10052,0.0063403,0.0039156,-0.00085083,-0.020175,-0.033227,-0.002013,-0.01865,-0.013102,0.00025092,0.013972,-0.030847,0.0054111,0.013393,-0.0029282,-0.041475,-0.022599,-0.0026012,-0.011762,0.01101,0.011249,0.0029883,-0.0037665,0.0123,0.01029,-0.032036,-0.0083131,0.008061,0.018609,-0.04251,0.00498,-0.030312,-0.054764,0.0099468,0.0072445,-0.01966,-0.085147,0.012834,0.0089036,0.019104,-0.012483,-0.066663,0.019198,-0.0007727,-0.018484,0.0063694,0.0047769,-0.0058429,-0.014111,-0.047115,-0.03506,0.016465,-0.05823,0.0050425,0.0056577,0.011118,-0.079331,-0.070715,0.0068084,-0.032689,-0.003154,0.0052592,0.00055146,0.0062763,0.0012619,0.010928,-0.0012108,-0.0063311,-0.018381,0.00087029,-0.019414,-0.071387,-0.00070005,0.012045,0.0041119,0.013406,0.0053787,0.0065881,-0.0050345,0.011252,-0.06173,-0.0040842,-0.078361,-0.045678,0.0128,-0.057967,0.0083379,0.0097655,-0.00586,0.012264,-0.039133,-0.026398,-0.049315,0.0029347,0.0095782,0.0034343,-0.048009,0.0082645,0.0062305,-0.0043933,0.01144,-0.061878,0.0061819,0.017442,-0.0017048,0.010724,0.0045937,-0.035498,-0.030519,0.001577,-0.025822,-0.057512,0.013948,0.0032148,-0.050746,0.020467,-0.041597,-0.11425,-0.041067,-0.039931,-0.048932,0.013127,-0.0030177,0.018646,0.011602,0.0044191,-0.0013267,0.011838,0.026879,0.0091034,0.013859,-0.030906,-0.019285,-0.067406,-0.055187,-0.0011553,-0.057748,-0.023681,-0.029874,-0.0053526,-0.01901,-0.080233,0.0057467,0.00018884,-0.014554,-0.061096,0.003854,-0.099336,0.0010816,0.013284,-0.00035024,0.0076622,-0.056993,0.0079223,-0.009497,0.0059232,0.015136,-0.075103,-0.034732,-0.029886,0.0098951,0.013586,0.0080862,-0.060803,0.0054797,0.0013202,0.014916,-0.010026,-0.0042751,0.0060304,0.011048,-0.061633,-0.015827,-0.053647,-0.003309,0.0053946,-0.005956,0.0047726,-0.008311,-0.00060806,0.0060488,-0.032687,0.014311,0.0039533,0.00053875,-0.034446,-0.009958,0.018456,-0.019305,-0.062969,0.02,0.0053439,-0.012813,0.0026486,-0.01684,-0.044965,-0.055134,0.0059967,-0.011288,0.016279,0.0077167,0.011055,-0.017787,0.013134,0.0063709,0.0085346,0.030873,-0.032309,0.015226,0.012995,-0.010931,-0.0040047,-0.043176,-0.0071075,-0.071685,-0.047893,0.0063647,0.0024226,0.00091936,0.0062355,-0.10332,0.017954,-0.054724,0.0032361,0.013731,0.0038188,0.022848,0.0093369,-0.019148,0.0017699,-0.0074699,-0.0089101,-0.053562,-0.055758,0.0039527,-0.0016815,-0.0066492,0.0069378,-0.025923,0.0021655,-0.077521,-0.041793,0.0047341,-0.0053611,0.00012543,0.0027534,-0.071939,-0.065314,0.0083007,-0.00062147,-0.033599,0.0080358,0.0092173,0.0013107,0.016945,0.026755,-0.082591,0.0081292,-0.056217,0.00035662,0.0055821,0.021398,0.0042089,-0.069871,-0.0026875,-0.016126,-0.02459,-0.0020236,0.0017913,0.0022616,0.0034105,-0.043939,-0.0034377,-0.024486,-0.0063652,-0.10778,-0.045663,-0.00027264,0.0064886,-0.061489,0.011799,0.011523,-0.0015046,-1.339e-05,-0.02556,-0.0050369,0.0030373,-0.056563,0.018061,0.0035916,0.014373,0.011915,0.0074572,-0.036743,-0.0021873,0.0042422,0.006009,-0.05775,-0.027173,-0.063844,-0.030361,0.0030253,0.013147,-0.00087383,0.002698,0.011753,0.011826,0.016861,0.0066213,-0.030528,0.010455,0.018898,0.0029435,0.0030453,-0.0005566,0.017017,-0.0063102,0.012759,-0.014466,-0.022044,0.0023494,0.022069,0.01452,-0.0073711,0.011097,0.011018,0.017179,0.00072932,0.01742,-0.043704,-0.031331,0.012603,-0.062321,0.0048772,-0.056679,0.0048297,-0.0052294,-0.012186,-0.0011783,0.011538,0.012188,-0.01583,0.005373,0.0034333,-0.064027,-0.013485,-0.0070209,-0.0048202,-0.0019793,0.0018945,-0.090914,-0.015729,-0.01161,0.0108,0.0041978,-0.064818,0.0075896,-0.023122,0.007607,0.018409,0.0069566,-0.0012245,0.010974,-0.0048443,0.015023,0.0033111,0.01643,-0.003373,-0.035881,0.011502,-0.059201,0.012948,-0.015217,0.0049605,-0.02865,0.01411,-0.029703,-0.03014,0.0073094,-0.071252,0.020774,-0.024884,-0.034527,0.010743,-0.010066,0.0095457,0.0078477,0.0039508,0.0093051,-0.0016342,-0.060199,-0.058208,0.013151,0.010962,0.0088332,0.0067091,-0.070381,-0.018742,-0.051775,0.0048086,-0.0066946,-0.066368,-0.074969,-0.090708,-0.023776,-0.026419,0.0047686,-0.091704,-0.079859,0.024037,-0.058248,-0.032281,-0.011041,-0.00093273,-0.076662,-0.036456,0.012599,0.0018125,-0.0024062,-0.01155,0.0087394,0.0023003,-0.0078934,0.014555,-0.063564,0.0094935,-0.0089135,-0.074186,-0.079196,0.0068404,0.0052802,0.020125,0.0079352,0.0167,0.0016407,0.015467,-0.02371,0.0048307,-0.01927,0.019979,0.015413,-0.083378,-0.032069,0.0073286,0.015889,-0.044967,-0.031522,-0.059473,0.010915,-0.064853,-0.029148,-0.026424,-0.041185,-0.073589,-0.028193,0.0049895,0.012253,-0.040726,-0.044337,0.0044831,0.015714,-0.021307,-0.0031668,0.0013577,-0.026646,-0.008875,0.011233,0.0091943,-0.020594,-0.00087281,0.014948,-0.039213,0.0040255,-0.0051532,0.0046713,-0.079138,0.031433,0.0097905,0.013754,-0.014938,0.0064072,0.027926,0.0017924,0.0056157,0.003635,0.0038939,-0.0017163,0.0057756,0.017006,-0.027351,0.0077937,0.0094527,-0.08589,-0.0089565,0.017946,-0.06213,0.0038524,0.010715,-0.047757,-0.060431,-0.0013575,0.0073746,0.022609,-0.040715,-0.019349,-0.0092938,0.021832,-0.078989,-0.080096,0.0022463,0.013143,0.0077314,-0.040794,-0.025729,-0.0049421,0.0069414,0.0031722,-0.04019,0.0015775,-0.030811,-0.011792,-0.066038,0.022453,0.0092832,0.022739,-0.078178,0.012277,0.0071359,0.0049225,0.024519,-0.018101,0.0013588,0.01593,-0.012061,0.010168,-0.054023,-0.00062087,0.0069098,-0.021203,-0.017598,0.007772,0.010948,-0.050579,-0.0013212,-0.064589,0.017265,-0.013841,-0.0020334,0.0058752,-0.049976,0.015536,0.006611,-0.0041428,0.012678,0.011512,-0.038172,-0.0012562,0.016875,-0.050406,0.013862,-0.0050097,-0.029826,0.010098,-0.015944,-0.027684,-0.039174,-0.012298,-0.025067,0.0031762,-0.028975,0.0056922,0.0064629,0.0049677,-0.044426,-0.052467,0.0065824,0.00031612,0.00096001,0.015788,-0.0087462,0.007661,0.0078366,-0.025985,-0.007279,-0.013352,0.014667,0.013203,-0.031773,-0.0027664,-0.033097,-0.023442,0.0048241,-0.035008,-0.0097048,0.0094452,0.0036418,0.0082969,-0.038588,-0.051067,0.0052905,0.0024129,-0.0011854,0.0026154,0.0063495,-0.029568,-0.040492,-0.038606,0.001863,0.0026478,-0.015096,-0.086655,0.0010591,0.011305,-0.0078438,-0.013867,0.012797,0.0052113,-0.024428,0.0065531,0.015668,-0.047835,0.0083854,-0.042168,0.010247,0.0010458,0.0065735,-0.023879,-0.0066271,-0.012361,0.0096713,0.018702,-0.028736,0.014085,-0.050903,-0.0889,-0.023496,0.0027973,-0.054623,0.014758,-0.0084032,-0.062895,-0.00095544,0.026677,0.015123,0.00042425,0.0017885,0.004358,0.025312,0.0043918,0.013197,-0.067415,0.0055735,0.012912,-0.062366,0.014113,-0.013553,0.0030215,0.016156,-0.067552,-0.0043465,0.012062,-0.0040946,-0.028463,-0.037913,0.020308,-0.038254,-0.028744,0.0042263,-0.062212,0.00080923,-0.032424,0.006725,-0.019045,-0.064471,-0.069301,0.0051779,0.015582,-0.020787,-0.12118,0.0031023,-0.050176,0.017458,-0.072685,-0.056108,-0.081028,0.01012,0.018803,-0.074644,0.0037936,-0.034401,0.020424,0.0022531,0.013423,-0.02732,0.025247,-0.070092,-0.045346,-0.053178,-0.073308,0.0093559,-0.0031923,0.0032442,0.0083094,-0.024881,0.0036921,0.0012696,-0.040664,0.013451,-0.013129,-0.072971,0.0031835,0.012593,0.0018437,0.01623,0.0015614,-0.010195,0.012278,-0.0051257,0.0094434,-0.02205,-0.00040444,0.0028815,-0.085973,-0.019576,-0.036414,0.0095792,0.018149,0.0026295,-0.005881,-0.018829,0.00044016,0.022175,0.0087663,-0.042547,-0.0023089,0.0037858,0.021993,0.0011606,0.029915,-0.056423,4.3281e-05,0.0043679,0.011722,0.016913,0.0058554,0.0013056,-0.0025471,0.0093876,-0.041171,0.013801,0.01119,0.01683,-0.050002,0.0040977,-0.032674,0.012784,0.0094266,0.015176,0.0090265,0.012671,-0.031988,-0.057857,-0.061946,0.0047762,0.0073689,0.0066559,-0.067025,-0.0027063,0.0023836,-0.01587,-0.053043,-0.0032383,0.0026237,0.0044968,0.0064921,0.0052058,-0.071293,-0.055189,0.018769,0.015287,-0.0012457,0.0068999,-0.0044894,-0.05705,0.019979,0.0087083,-0.029628,-0.0017678,0.0040152,-0.0012103,0.0026221,-0.012302,0.0013178,0.011416,0.018001,0.014588,-0.087504,-0.025012,-0.011565,-0.063778,0.010003,-0.10006,0.00021717,-5.7185e-05,-0.049514,0.004945,-0.0032799,-0.0011184,0.013717,-0.039857,-0.00795,0.0085383,0.0022161,0.013906,-0.025293,-0.0091863,0.024818,0.0023173,0.0062451,-0.030396,0.0098874,-0.034088,0.0014935,-0.013811,0.0049491,-0.088967,-0.028519,0.0070811,-0.018122,-2.8952e-05,-0.091056,0.010351,-0.0073339,-0.047619,0.018062,0.0075526,-0.042514,0.00055582,-0.037011,-0.00078126,0.010824,0.018902,0.0033461,-0.037435,-0.052312,-0.051207,-0.046733,0.011217,0.0083466,-0.0082512,0.016212,-0.052763,-0.025135,-0.094587,-0.0062643,-0.048957,0.015245,0.017605,0.0090643,-0.011057,0.0055867,-0.0040951,0.0053665,0.0028212,0.017097,-0.0043323,-0.032958,0.011993,0.0030702,0.01294,0.0061698,-0.010994,0.0058673,-0.03518,0.011055,-0.0029053,-0.020581,0.010828,0.010766,-0.022754
0.015564,0.00691,0.0085198,0.014355,0.0065175,0.010034,-0.10187,0.016149,-0.03448,-0.081569,-0.034565,0.011018,-0.043181,0.0066868,-0.045886,0.0088721,0.0054194,0.0079581,0.0081822,-0.0050316,-0.0022667,0.0062147,0.0045465,0.0028812,-0.066396,-0.068736,-0.0024354,-0.0088437,0.01581,0.0097748,0.0052021,-0.024688,0.02904,0.012069,0.0047617,0.020814,0.0046735,0.012412,-0.045319,-0.10686,0.0033563,-0.023141,-0.0062709,-0.091867,0.0075661,0.0089046,0.0084947,-0.0030161,-0.096783,0.0017906,0.026188,0.0026502,-0.051566,0.01298,-0.015208,-0.0727,0.0098018,0.010102,0.028653,0.0068364,-0.00063996,-0.035218,0.016084,0.02524,0.009699,-0.017572,-0.10168,0.011919,-0.0012054,-5.8558e-05,-0.021094,-0.047583,-5.5338e-05,-0.085126,0.0041686,-0.0018166,0.0063047,0.0082361,-0.064609,0.0098421,-0.012835,-0.0070896,0.0017897,-0.0014162,0.010281,0.009156,-0.0021791,0.0028631,0.010774,-0.036095,0.0081672,-0.0090953,-0.013249,0.007195,0.0054862,0.0043052,0.01486,-0.0318,0.0035275,0.014834,0.029095,-0.047825,0.0028722,0.0081907,0.0074242,0.0081848,0.019677,0.0071729,-0.037039,-0.089165,0.0038299,-0.019061,-0.03777,0.0083051,-0.0054827,-0.07394,0.012075,-0.092852,-0.031194,0.0082712,-0.047434,0.014728,0.012137,-0.029919,-0.013234,0.0066663,-0.066088,-0.0058517,-0.00032239,-0.027028,-0.033831,0.022188,0.0049168,-0.081629,0.0086703,0.0067993,-0.044568,-0.015039,-0.040992,0.016741,-0.0055731,-0.03188,-0.0033826,-0.012264,-0.011818,0.0015235,-0.059431,0.0077213,0.0064249,0.0014713,-0.0045798,0.0169,0.014894,-0.0094996,0.010611,-0.026024,-0.018808,-0.034315,0.0052175,0.0017829,-0.0010341,0.0085586,-0.012229,0.01983,0.011856,-0.067092,0.0062601,0.021745,0.0038415,0.03353,-0.0044881,-0.091494,0.0098102,0.0092602,-0.092795,-0.044499,0.020244,-0.038938,0.0070979,0.013565,-0.0091537,-0.093187,0.011925,-0.074367,-0.054608,0.0074262,-0.050238,0.0093539,-0.024379,0.018912,0.0053082,0.02551,0.017906,-0.0039312,0.004799,-0.036672,-0.003149,-0.014971,0.011044,0.025489,0.0090405,-0.03976,0.0013043,0.0048536,0.0052846,0.0084741,0.013373,-0.036621,-0.064725,0.0019005,0.00015216,-0.095695,0.016588,-0.007585,0.026263,0.018423,-0.058461,-0.026638,0.011744,-0.003618,-0.10053,-0.03939,-0.0081871,0.012345,-0.040243,-0.014948,0.0051729,0.023592,0.0043587,0.01139,0.0099568,0.01986,0.014995,0.013282,0.031413,-0.023656,0.0129,0.0076981,0.0020845,0.0041114,-0.0019927,0.0037141,-0.026954,-0.0028002,0.0059048,-0.060715,0.018339,0.0069646,-0.045918,0.0042037,-0.026607,0.0047847,0.0072956,-0.023024,0.022194,-0.03601,-0.040852,0.010629,0.00032658,-0.0026025,-0.092623,-0.028511,-0.0033087,0.015289,0.025571,-0.085042,0.022673,-0.073822,0.01537,-0.049083,0.0060529,-0.027664,-0.058493,-0.047378,-0.026055,0.0057687,-0.014214,0.0030472,-0.076678,0.016835,0.0016159,0.00064923,-0.0019748,-0.11463,-0.021588,-0.010642,-0.01853,0.029101,0.0040377,-0.0063457,0.0076643,0.017393,-0.058019,-0.023436,0.016261,0.0072075,0.00049452,0.011025,-0.052318,-0.000213,0.0043581,-0.0030466,1.3202e-05,0.0075557,0.0033541,0.0090716,-0.0069125,0.017375,0.0006721,-0.052459,0.01675,0.0045715,0.017599,0.0099946,0.010364,0.0090285,0.019494,-0.039494,0.0091952,0.0039174,0.0073325,-0.034618,0.010161,-0.01887,0.0053946,-0.014108,-0.0091783,-0.020195,-0.007366,-0.029685,0.0040187,-0.038134,0.004792,0.0079576,-0.094993,0.0078475,0.03682,0.0080973,-0.03462,-0.038824,0.0089587,0.0096154,0.0042527,0.0089105,0.012131,0.0084721,0.002059,0.0038858,0.019342,0.00056866,-0.0067349,0.007123,0.015461,0.018461,0.0070399,0.00038261,0.0051428,0.0021498,0.015544,0.017096,-0.044497,-0.072336,0.016501,-0.0025356,-0.080283,-0.020598,0.024438,-0.026984,-0.02909,0.0010103,0.0083131,-0.069107,-0.078087,-0.011365,-0.064655,0.0089985,0.0047564,0.0024243,-0.018158,0.012095,-0.01873,0.020374,-0.04963,-0.064279,-0.051918,0.0078817,-0.044522,-0.023005,0.0065911,-0.018854,-0.0032608,-0.06202,-0.03871,-0.004898,-0.10855,0.004154,0.011819,0.0088244,-0.10825,-0.0018028,0.0024303,-0.031403,0.018212,0.0038687,0.010529,-0.061683,0.010509,-0.075008,0.016307,0.012043,0.0017676,-0.015383,0.013034,0.0071967,0.010065,-0.032394,-0.057307,-0.0096848,-0.12803,-0.070959,-0.0012017,-0.069945,-0.054289,0.0067589,-0.090738,-0.042643,-0.03384,0.0054632,-0.032072,0.0065918,0.0063479,0.0027374,0.0071776,-0.062798,0.0001696,0.01521,-0.033471,-0.0027335,-0.034438,0.0094021,-0.0012622,-0.065801,-0.0068249,0.016356,0.018099,0.014618,-0.042593,0.0059527,0.015785,-0.0012721,0.017043,0.0099462,-0.028889,0.011427,-0.018001,-0.065069,0.016557,0.014601,8.2809e-05,0.0085771,0.00057064,0.021503,-0.0018104,-0.036779,-0.047933,0.0082359,-0.025967,-0.077884,-0.030246,0.01034,-0.039495,0.012226,0.0097867,0.0044839,-0.0017168,0.0030399,-0.046238,-0.032882,-0.090487,-0.066432,0.020593,0.010522,-0.022776,0.013719,-0.025991,0.015122,0.01801,0.00023046,-0.031077,-0.063815,0.019674,-0.0077303,0.0080573,0.013027,0.0089652,0.012668,-0.0325,-0.021844,0.0019124,0.0021318,0.0095762,-0.028329,0.015627,-0.023338,0.011595,0.0042139,-0.022129,0.0072384,0.013999,-0.067707,0.014648,-0.085597,0.0075317,0.012679,-0.024871,0.0090589,0.014637,0.016554,0.010654,0.0037251,0.0077689,0.0096134,-0.0537,-0.0065688,0.0074933,0.0014171,-0.067625,-0.094775,0.021392,0.015987,-0.0034161,-0.11927,0.0077741,0.0079139,0.0026717,-0.1072,-0.0028896,-0.0028147,0.014762,0.012356,-0.062015,0.020342,0.0027601,-0.072523,0.020494,-0.040124,-0.011141,-0.014457,0.0039558,-0.016627,0.010771,-0.069286,0.0001015,0.0050652,0.012865,-0.061342,0.01083,0.016571,-0.0023057,-0.04469,-0.047407,0.0035933,0.016481,-0.023611,-0.02767,0.019127,-0.00093302,0.01094,0.00054416,-0.060259,-0.0048442,0.010083,0.015396,-0.034189,0.019785,0.012739,0.0033428,0.020701,0.002288,-0.060671,0.0053424,0.024303,-0.012299,-0.080182,-0.018765,0.0020233,0.0060293,0.0015464,-0.051531,-0.03336,0.01559,-0.035348,0.019463,-0.049626,-0.00099353,0.0031938,0.010308,-0.055075,0.0091221,0.012958,-0.037429,0.01217,0.010716,-0.044138,0.0081717,-0.052842,-0.017197,0.022264,0.0081597,-0.0032444,0.014089,0.010251,-0.017454,0.008742,-0.066969,0.0071411,0.0082676,0.0022031,-0.071473,0.0054362,-0.074295,-0.04029,-0.042753,0.00073777,-0.049503,0.0036566,0.013522,-0.010713,-0.079772,0.0046299,0.01451,0.014716,-0.029335,0.010765,-0.037332,0.016746,0.0027461,0.0046624,0.00816,-0.014871,0.016105,-0.10587,-0.10127,0.011817,-0.02938,0.015084,0.014158,0.013424,0.0037977,-0.0012212,0.0040173,0.011799,-0.031719,0.0020351,-0.002755,0.020826,-0.031487,0.0020563,-0.10854,0.010122,0.014115,0.012971,0.010833,0.0015809,-0.059167,-0.014654,0.0080564,-0.050269,-0.024129,-0.03199,0.009016,0.003987,-0.014355,-0.025223,-0.075924,0.0061112,0.0067666,-0.044624,0.015911,0.016899,0.019007,-0.056279,-0.059729,0.0010516,0.0083307,-0.015742,0.017407,-0.073215,0.0068556,0.017382,0.001999,0.0026237,0.0052162,-0.05127,-0.070277,0.019082,0.010766,-0.031571,0.029118,-0.0025521,-0.057997,0.008707,-0.045369,0.019915,-0.065644,0.0070496,-0.064059,-0.060609,0.0085493,-0.022156,-0.0053062,0.01146,-0.036943,-0.08378,-0.033825,-0.067422,-0.050608,0.0030435,-0.041823,-0.026559,-0.0029444,0.0060806,-0.094557,0.012254,-0.044845,0.015133,0.014435,0.0027418,-0.056191,0.021699,-0.079107,0.0066997,0.015478,-0.017263,-0.00063015,-0.004827,0.012716,-0.041296,0.0018831,0.009242,0.0066889,-0.055167,-0.0027054,0.010943,-0.077764,0.010013,0.0035844,0.0097947,0.0015344,-0.049133,0.0059496,0.011237,-0.013759,-0.033453,-0.051376,-0.070427,0.0041047,-0.07391,0.0036497,0.0097605,-0.080702,-0.10257,-0.065429,0.013197,0.007806,-0.049444,0.0074211,0.0093824,-0.0018985,-0.068909,-0.034923,-0.066409,0.005205,0.0082627,-0.066157,-0.032173,0.010778,0.0062431,0.0083938,0.013308,0.009904,0.00065759,0.019902,0.010792,0.0060554,-0.024016,0.0079206,0.0060135,0.0049242,-0.032895,0.010988,0.013539,-0.045007,-0.012456,-0.07491,-0.046562,0.014044,-0.11318,0.02997,-0.0016292,0.014353,0.0024128,-0.023083,0.010578,0.0037224,0.019693,0.0061383,-0.037403,0.013628,-0.0065867,-0.022125,0.0052773,0.0064226,0.0079076,0.023191,-0.05523,-0.087736,0.00979,0.0059331,-0.0026309,-0.042707,-0.071968,0.017511,0.0056825,0.006264,0.014251,0.00114,0.016651,-0.096091,0.015827,-0.024561,0.013579,0.016719,0.010649,0.0070633,-0.062044,-0.069038,-0.0024323,-0.048346,-0.085059,-0.0029994,0.0029554,-0.021991,-0.0076305,0.0023405,-0.030559,-3.4275e-05,0.027733,-0.071957,0.009697,0.0060627,-0.05395,0.0079962,0.0043036,-0.0058925,-0.0031939,-0.041132,0.01098,0.023139,-0.00048512,0.0076354,0.010472,-0.039094,-0.051291,0.0063266,0.0084106,-0.086405,-0.0011319,0.021015,-0.002472,0.0021032,0.0051839,-0.0056889,0.0062696,-0.051937,-0.011714,-0.084797,0.0010987,-0.076583,-0.043435,-0.012031,-0.023208,-0.040182,0.0047221,0.022699,-0.012864,0.0070049,0.00050088,-0.030013,0.0035424,-0.034166,0.0087034,-0.032773,-0.0018421,-0.0041423,0.015974,-0.0029753,0.0021888,0.018924,0.013836,-0.039991,0.01796,-0.060228,0.0001379,0.0037656,0.021226,0.013872,-0.00095528,-0.0043349,-0.061134,0.010123,-0.088792,0.003532,-0.03694,0.0093837,0.014316,-0.0012833,-0.067109,0.014318,-0.051392,-0.059405,-0.033471,-0.034141,0.0052487,0.0058295,-0.002855,0.013417,0.0084244,-0.038622,0.010525,0.0076399,-0.04206,-0.012351,-0.03073,-0.02293,0.019378,0.015234,-0.058077,0.018674,0.02667,0.0013437,0.0039277,0.0096128,-0.057808,0.012527,0.018015,-0.010781,-0.035095,-0.044984,0.0017777,0.014203,-0.028366,0.018131,-0.036414,0.012388,-0.0036475,-0.01726,-0.071696,0.015586,-0.0040839,-0.080041,0.0070954,0.022091,0.021815,-0.039286,-0.074312,-0.00017649,-0.0030532,-0.10129,0.01051,0.012504,-0.059369,0.0023243,0.003848,0.018182,-0.013959,0.0055688,0.0021977,-0.0010425,0.016201,0.023714,0.0055792,0.002177,-0.094999,0.014637,-0.00010471,0.00065752,-0.074947,0.0093655,-0.012131,0.007724,-0.028248,-0.077431,0.005527,0.013514,-0.034076,0.019153,-0.032034,0.0082523,-0.092934,0.00081486,-0.064857,-0.007745,-0.032002,0.016151,0.023853,0.0043795,-0.094798,0.0050876,-0.055408,0.0065722,-0.10851,0.0092039,-0.0024907,0.0096826,0.0046899,-0.023039,0.0025959,0.017657,0.016805,-0.023652,0.01026,0.013756,0.012387,-0.0063219,-0.052012,0.01169,0.017677,0.0048436,-0.023006,0.015005,0.016828,-0.036153,0.0094834,-0.086603,0.0073481,0.012401,-0.07268,-0.0054487,0.0048582,0.00033412,-0.012409,0.0016596,-0.046062,0.012179,0.015974,0.0047762,-0.056378,-0.015299,0.0035506,0.023373,0.0076108,0.0090886,-0.00068688,0.0070327,0.013592,0.01278,-0.02879,-0.047978,3.6235e-05,-0.030737,-0.031882,0.015451,0.020219,0.0034022,-0.0021015,-0.029536,0.0066057,0.020379,-0.03305,0.020542,-0.051409,0.010587,-0.074212,0.0087074,0.018183,0.0046456,-0.0057331,0.034427,0.010474,-0.00022811,0.018695,0.0032417,-0.014469,-0.061225,-0.031431,-0.1056,-0.041296,-0.050751,0.0074812,-0.071674,0.0017637,-0.056031,7.3836e-07,0.015524,-0.063836,0.003975,-0.0027224,0.009915,0.006597,0.019399,0.013683,0.0013028,0.006505,0.016453,0.0098764,-0.048998,-0.00088041,0.013106,-0.016678,0.00098653,-0.0035179,-0.046637,0.01538,0.022626,0.0088777,0.010051,-0.0035826,-0.097873,0.00056699,0.012751,0.010621,0.02296,-0.036848,-8.511e-05,0.0041566,-0.045392,0.0068862,0.012017,0.0041605,-0.09868,-0.0075085,-0.034205,-0.013318,-0.0092484,0.0029973,-0.054022,-0.019433,-0.089324,-0.040872,0.010957,0.0071517,-0.0030008,-0.04489,0.0076401,0.0020957,0.0045314,0.014377,-0.003055,0.0014566,-0.0015469,0.0096774,0.0041363,-0.0026541,0.008645,-0.031523,-0.0049216,0.0069012,0.0078562,0.0083222,-0.04379,0.0043578,0.013585,0.0073584,0.0025939,-0.029187,0.0016235,0.01033,0.010794,0.00067842,0.018738,0.011728,-0.051342,-0.10366,-0.0032037,-0.05786,0.0073611,0.0094949,0.032723,-0.026389,-0.096844,-0.039063,-0.010778,-0.013311,0.021301,0.0033089,0.0076496,0.0054562,-0.02652,-0.046379,0.012218,0.0019636,0.021818,0.0039409,0.0028644,-0.057346,-0.0079737,0.00095776,0.014929,0.0049092
